<?xml version="1.0"?><MethodSetup Method="BDT::BDT"><Variables NVar="22"><Variable Expression="BToKEE_l1_ptN" Internal="BToKEE_l1_ptN" Label="BToKEE_l1_ptN" Max="0.0e+00" Min="0.0e+00" Title="BToKEE_l1_ptN" Type="0" Unit="" VarIndex="0" /><Variable Expression="BToKEE_l2_ptN" Internal="BToKEE_l2_ptN" Label="BToKEE_l2_ptN" Max="0.0e+00" Min="0.0e+00" Title="BToKEE_l2_ptN" Type="1" Unit="" VarIndex="1" /><Variable Expression="BToKEE_k_ptN" Internal="BToKEE_k_ptN" Label="BToKEE_k_ptN" Max="0.0e+00" Min="0.0e+00" Title="BToKEE_k_ptN" Type="2" Unit="" VarIndex="2" /><Variable Expression="BToKEE_ptN" Internal="BToKEE_ptN" Label="BToKEE_ptN" Max="0.0e+00" Min="0.0e+00" Title="BToKEE_ptN" Type="3" Unit="" VarIndex="3" /><Variable Expression="BToKEE_iso04" Internal="BToKEE_iso04" Label="BToKEE_iso04" Max="0.0e+00" Min="0.0e+00" Title="BToKEE_iso04" Type="4" Unit="" VarIndex="4" /><Variable Expression="BToKEE_l1_iso04" Internal="BToKEE_l1_iso04" Label="BToKEE_l1_iso04" Max="0.0e+00" Min="0.0e+00" Title="BToKEE_l1_iso04" Type="5" Unit="" VarIndex="5" /><Variable Expression="BToKEE_l2_iso04" Internal="BToKEE_l2_iso04" Label="BToKEE_l2_iso04" Max="0.0e+00" Min="0.0e+00" Title="BToKEE_l2_iso04" Type="6" Unit="" VarIndex="6" /><Variable Expression="BToKEE_k_iso04" Internal="BToKEE_k_iso04" Label="BToKEE_k_iso04" Max="0.0e+00" Min="0.0e+00" Title="BToKEE_k_iso04" Type="7" Unit="" VarIndex="7" /><Variable Expression="BToKEE_l1_pfmvaId" Internal="BToKEE_l1_pfmvaId" Label="BToKEE_l1_pfmvaId" Max="0.0e+00" Min="0.0e+00" Title="BToKEE_l1_pfmvaId" Type="8" Unit="" VarIndex="8" /><Variable Expression="BToKEE_l2_pfmvaId" Internal="BToKEE_l2_pfmvaId" Label="BToKEE_l2_pfmvaId" Max="0.0e+00" Min="0.0e+00" Title="BToKEE_l2_pfmvaId" Type="9" Unit="" VarIndex="9" /><Variable Expression="BToKEE_l1_mvaId" Internal="BToKEE_l1_mvaId" Label="BToKEE_l1_mvaId" Max="0.0e+00" Min="0.0e+00" Title="BToKEE_l1_mvaId" Type="1" Unit="" VarIndex="10" /><Variable Expression="BToKEE_l2_mvaId" Internal="BToKEE_l2_mvaId" Label="BToKEE_l2_mvaId" Max="0.0e+00" Min="0.0e+00" Title="BToKEE_l2_mvaId" Type="1" Unit="" VarIndex="11" /><Variable Expression="BToKEE_cos2D" Internal="BToKEE_cos2D" Label="BToKEE_cos2D" Max="0.0e+00" Min="0.0e+00" Title="BToKEE_cos2D" Type="1" Unit="" VarIndex="12" /><Variable Expression="BToKEE_DeltaZ" Internal="BToKEE_DeltaZ" Label="BToKEE_DeltaZ" Max="0.0e+00" Min="0.0e+00" Title="BToKEE_DeltaZ" Type="1" Unit="" VarIndex="13" /><Variable Expression="BToKEE_ptImb" Internal="BToKEE_ptImb" Label="BToKEE_ptImb" Max="0.0e+00" Min="0.0e+00" Title="BToKEE_ptImb" Type="1" Unit="" VarIndex="14" /><Variable Expression="BToKEE_svprob" Internal="BToKEE_svprob" Label="BToKEE_svprob" Max="0.0e+00" Min="0.0e+00" Title="BToKEE_svprob" Type="1" Unit="" VarIndex="15" /><Variable Expression="BToKEE_l_xy_sig" Internal="BToKEE_l_xy_sig" Label="BToKEE_l_xy_sig" Max="0.0e+00" Min="0.0e+00" Title="BToKEE_l_xy_sig" Type="1" Unit="" VarIndex="16" /><Variable Expression="BToKEE_l1_dxySig" Internal="BToKEE_l1_dxySig" Label="BToKEE_l1_dxySig" Max="0.0e+00" Min="0.0e+00" Title="BToKEE_l1_dxySig" Type="1" Unit="" VarIndex="17" /><Variable Expression="BToKEE_l2_dxySig" Internal="BToKEE_l2_dxySig" Label="BToKEE_l2_dxySig" Max="0.0e+00" Min="0.0e+00" Title="BToKEE_l2_dxySig" Type="1" Unit="" VarIndex="18" /><Variable Expression="BToKEE_k_dxySig" Internal="BToKEE_k_dxySig" Label="BToKEE_k_dxySig" Max="0.0e+00" Min="0.0e+00" Title="BToKEE_k_dxySig" Type="1" Unit="" VarIndex="19" /><Variable Expression="BToKEE_maxDR" Internal="BToKEE_maxDR" Label="BToKEE_maxDR" Max="0.0e+00" Min="0.0e+00" Title="BToKEE_maxDR" Type="2" Unit="" VarIndex="20" /><Variable Expression="BToKEE_minDR" Internal="BToKEE_minDR" Label="BToKEE_minDR" Max="0.0e+00" Min="0.0e+00" Title="BToKEE_minDR" Type="2" Unit="" VarIndex="21" /></Variables><GeneralInfo><Info name="Creator" value="xgboost2TMVA" /><Info name="AnalysisType" value="Classification" /></GeneralInfo><Options><Option modified="No" name="NodePurityLimit">5.00e-01</Option><Option modified="Yes" name="BoostType">Grad</Option></Options><Weights AnalysisType="1" NTrees="154"><BinaryTree boostWeight="1.0e+00" itree="0" type="DecisionTree"><Node Cut="0.0978284478" IVar="BToKEE_l1_pfmvaId" NCoef="0" cType="1" depth="0" nType="0" pos="s" purity="0.0e+00" res="0.0e+00" rms="0.0e+00"><Node Cut="9.66129494" IVar="BToKEE_l_xy_sig" NCoef="0" cType="1" depth="1" nType="0" pos="l" purity="0.0e+00" res="0.0e+00" rms="0.0e+00"><Node Cut="0.501282752" IVar="BToKEE_l2_pfmvaId" NCoef="0" cType="1" depth="2" nType="0" pos="l" purity="0.0e+00" res="0.0e+00" rms="0.0e+00"><Node Cut="6.38305664" IVar="BToKEE_l2_iso04" NCoef="0" cType="1" depth="3" nType="0" pos="l" purity="0.0e+00" res="0.0e+00" rms="0.0e+00"><Node Cut="0.590643048" IVar="BToKEE_k_ptN" NCoef="0" cType="1" depth="4" nType="0" pos="l" purity="0.0e+00" res="0.0e+00" rms="0.0e+00"><Node Cut="-0.570119441" IVar="BToKEE_l2_pfmvaId" NCoef="0" cType="1" depth="5" nType="0" pos="l" purity="0.0e+00" res="0.0e+00" rms="0.0e+00" /><Node Cut="2.79806828" IVar="BToKEE_l_xy_sig" NCoef="0" cType="1" depth="5" nType="0" pos="r" purity="0.0e+00" res="0.0e+00" rms="0.0e+00" /></Node><Node Cut="1.31578481" IVar="BToKEE_k_ptN" NCoef="0" cType="1" depth="4" nType="0" pos="r" purity="0.0e+00" res="0.0e+00" rms="0.0e+00"><Node Cut="4.5078125" IVar="BToKEE_k_dxySig" NCoef="0" cType="1" depth="5" nType="0" pos="l" purity="0.0e+00" res="0.0e+00" rms="0.0e+00" /><Node Cut="15.348877" IVar="BToKEE_k_iso04" NCoef="0" cType="1" depth="5" nType="0" pos="r" purity="0.0e+00" res="0.0e+00" rms="0.0e+00" /></Node></Node><Node Cut="0.440680385" IVar="BToKEE_k_ptN" NCoef="0" cType="1" depth="3" nType="0" pos="r" purity="0.0e+00" res="0.0e+00" rms="0.0e+00"><Node Cut="-1.18117154" IVar="BToKEE_l1_pfmvaId" NCoef="0" cType="1" depth="4" nType="0" pos="l" purity="0.0e+00" res="0.0e+00" rms="0.0e+00"><Node Cut="1.58618164" IVar="BToKEE_l2_iso04" NCoef="0" cType="1" depth="5" nType="0" pos="l" purity="0.0e+00" res="0.0e+00" rms="0.0e+00" /><Node Cut="6.8684082" IVar="BToKEE_l2_iso04" NCoef="0" cType="1" depth="5" nType="0" pos="r" purity="0.0e+00" res="0.0e+00" rms="0.0e+00" /></Node><Node Cut="-3.27277875" IVar="BToKEE_l1_pfmvaId" NCoef="0" cType="1" depth="4" nType="0" pos="r" purity="0.0e+00" res="0.0e+00" rms="0.0e+00"><Node Cut="2.08790612" IVar="BToKEE_l2_pfmvaId" NCoef="0" cType="1" depth="5" nType="0" pos="l" purity="0.0e+00" res="0.0e+00" rms="0.0e+00" /><Node Cut="16.3691406" IVar="BToKEE_k_iso04" NCoef="0" cType="1" depth="5" nType="0" pos="r" purity="0.0e+00" res="0.0e+00" rms="0.0e+00" /></Node></Node></Node><Node Cut="0.338324249" IVar="BToKEE_k_ptN" NCoef="0" cType="1" depth="2" nType="0" pos="r" purity="0.0e+00" res="0.0e+00" rms="0.0e+00"><Node Cut="6.03393555" IVar="BToKEE_l2_iso04" NCoef="0" cType="1" depth="3" nType="0" pos="l" purity="0.0e+00" res="0.0e+00" rms="0.0e+00"><Node Cut="0.0368803851" IVar="BToKEE_svprob" NCoef="0" cType="1" depth="4" nType="0" pos="l" purity="0.0e+00" res="0.0e+00" rms="0.0e+00"><Node Cut="3.82250977" IVar="BToKEE_iso04" NCoef="0" cType="1" depth="5" nType="0" pos="l" purity="0.0e+00" res="0.0e+00" rms="0.0e+00" /><Node Cut="0.972703934" IVar="BToKEE_cos2D" NCoef="0" cType="1" depth="5" nType="0" pos="r" purity="0.0e+00" res="0.0e+00" rms="0.0e+00" /></Node><Node Cut="0.707988322" IVar="BToKEE_l2_pfmvaId" NCoef="0" cType="1" depth="4" nType="0" pos="r" purity="0.0e+00" res="0.0e+00" rms="0.0e+00"><Node Cut="0.713702261" IVar="BToKEE_svprob" NCoef="0" cType="1" depth="5" nType="0" pos="l" purity="0.0e+00" res="0.0e+00" rms="0.0e+00" /><Node Cut="-1.0907191" IVar="BToKEE_l1_pfmvaId" NCoef="0" cType="1" depth="5" nType="0" pos="r" purity="0.0e+00" res="0.0e+00" rms="0.0e+00" /></Node></Node><Node Cut="0.997353673" IVar="BToKEE_cos2D" NCoef="0" cType="1" depth="3" nType="0" pos="r" purity="0.0e+00" res="0.0e+00" rms="0.0e+00"><Node Cut="0.417404294" IVar="BToKEE_minDR" NCoef="0" cType="1" depth="4" nType="0" pos="l" purity="0.0e+00" res="0.0e+00" rms="0.0e+00"><Node Cut="5.66992188" IVar="BToKEE_l2_iso04" NCoef="0" cType="1" depth="5" nType="0" pos="l" purity="0.0e+00" res="0.0e+00" rms="0.0e+00" /><Node Cut="0.982269049" IVar="BToKEE_cos2D" NCoef="0" cType="1" depth="5" nType="0" pos="r" purity="0.0e+00" res="0.0e+00" rms="0.0e+00" /></Node><Node Cut="-2.61633921" IVar="BToKEE_l1_pfmvaId" NCoef="0" cType="1" depth="4" nType="0" pos="r" purity="0.0e+00" res="0.0e+00" rms="0.0e+00"><Node Cut="21.9135742" IVar="BToKEE_l2_iso04" NCoef="0" cType="1" depth="5" nType="0" pos="l" purity="0.0e+00" res="0.0e+00" rms="0.0e+00" /><Node Cut="0.00663574087" IVar="BToKEE_svprob" NCoef="0" cType="1" depth="5" nType="0" pos="r" purity="0.0e+00" res="0.0e+00" rms="0.0e+00" /></Node></Node></Node></Node><Node Cut="0.994177222" IVar="BToKEE_cos2D" NCoef="0" cType="1" depth="1" nType="0" pos="r" purity="0.0e+00" res="0.0e+00" rms="0.0e+00"><Node Cut="-0.149788052" IVar="BToKEE_l2_pfmvaId" NCoef="0" cType="1" depth="2" nType="0" pos="l" purity="0.0e+00" res="0.0e+00" rms="0.0e+00"><Node Cut="0.517750502" IVar="BToKEE_k_ptN" NCoef="0" cType="1" depth="3" nType="0" pos="l" purity="0.0e+00" res="0.0e+00" rms="0.0e+00"><Node Cut="3.70605469" IVar="BToKEE_l1_iso04" NCoef="0" cType="1" depth="4" nType="0" pos="l" purity="0.0e+00" res="0.0e+00" rms="0.0e+00"><Node Cut="1.48826027" IVar="BToKEE_l1_pfmvaId" NCoef="0" cType="1" depth="5" nType="0" pos="l" purity="0.0e+00" res="0.0e+00" rms="0.0e+00" /><Node Cut="1.26773894" IVar="BToKEE_DeltaZ" NCoef="0" cType="1" depth="5" nType="0" pos="r" purity="0.0e+00" res="0.0e+00" rms="0.0e+00" /></Node><Node Cut="14.2321777" IVar="BToKEE_iso04" NCoef="0" cType="1" depth="4" nType="0" pos="r" purity="0.0e+00" res="0.0e+00" rms="0.0e+00"><Node Cut="1.22153902" IVar="BToKEE_maxDR" NCoef="0" cType="1" depth="5" nType="0" pos="l" purity="0.0e+00" res="0.0e+00" rms="0.0e+00" /><Node Cut="3.46777344" IVar="BToKEE_k_dxySig" NCoef="0" cType="1" depth="5" nType="0" pos="r" purity="0.0e+00" res="0.0e+00" rms="0.0e+00" /></Node></Node><Node Cut="0.340149671" IVar="BToKEE_k_ptN" NCoef="0" cType="1" depth="3" nType="0" pos="r" purity="0.0e+00" res="0.0e+00" rms="0.0e+00"><Node Cut="7.11303711" IVar="BToKEE_l1_iso04" NCoef="0" cType="1" depth="4" nType="0" pos="l" purity="0.0e+00" res="0.0e+00" rms="0.0e+00"><Node Cut="0.301845074" IVar="BToKEE_minDR" NCoef="0" cType="1" depth="5" nType="0" pos="l" purity="0.0e+00" res="0.0e+00" rms="0.0e+00" /><Node Cut="3.98266602" IVar="BToKEE_l2_iso04" NCoef="0" cType="1" depth="5" nType="0" pos="r" purity="0.0e+00" res="0.0e+00" rms="0.0e+00" /></Node><Node Cut="15.2529297" IVar="BToKEE_k_iso04" NCoef="0" cType="1" depth="4" nType="0" pos="r" purity="0.0e+00" res="0.0e+00" rms="0.0e+00"><Node Cut="19.2766113" IVar="BToKEE_l1_iso04" NCoef="0" cType="1" depth="5" nType="0" pos="l" purity="0.0e+00" res="0.0e+00" rms="0.0e+00" /><Node Cut="0.983582914" IVar="BToKEE_cos2D" NCoef="0" cType="1" depth="5" nType="0" pos="r" purity="0.0e+00" res="0.0e+00" rms="0.0e+00" /></Node></Node></Node><Node Cut="0.22366941" IVar="BToKEE_k_ptN" NCoef="0" cType="1" depth="2" nType="0" pos="r" purity="0.0e+00" res="0.0e+00" rms="0.0e+00"><Node Cut="-0.596366405" IVar="BToKEE_l2_pfmvaId" NCoef="0" cType="1" depth="3" nType="0" pos="l" purity="0.0e+00" res="0.0e+00" rms="0.0e+00"><Node Cut="-3.85839844" IVar="BToKEE_k_dxySig" NCoef="0" cType="1" depth="4" nType="0" pos="l" purity="0.0e+00" res="0.0e+00" rms="0.0e+00"><Node Cut="19.2355957" IVar="BToKEE_l2_iso04" NCoef="0" cType="1" depth="5" nType="0" pos="l" purity="0.0e+00" res="0.0e+00" rms="0.0e+00" /><Node Cut="3.24682617" IVar="BToKEE_l1_iso04" NCoef="0" cType="1" depth="5" nType="0" pos="r" purity="0.0e+00" res="0.0e+00" rms="0.0e+00" /></Node><Node Cut="8.25073242" IVar="BToKEE_l1_iso04" NCoef="0" cType="1" depth="4" nType="0" pos="r" purity="0.0e+00" res="0.0e+00" rms="0.0e+00"><Node Cut="0.128525257" IVar="BToKEE_k_ptN" NCoef="0" cType="1" depth="5" nType="0" pos="l" purity="0.0e+00" res="0.0e+00" rms="0.0e+00" /><Node Cut="0.199985266" IVar="BToKEE_svprob" NCoef="0" cType="1" depth="5" nType="0" pos="r" purity="0.0e+00" res="0.0e+00" rms="0.0e+00" /></Node></Node><Node Cut="-2.02319384" IVar="BToKEE_l2_pfmvaId" NCoef="0" cType="1" depth="3" nType="0" pos="r" purity="0.0e+00" res="0.0e+00" rms="0.0e+00"><Node Cut="8.4773159" IVar="BToKEE_l_xy_sig" NCoef="0" cType="1" depth="4" nType="0" pos="l" purity="0.0e+00" res="0.0e+00" rms="0.0e+00"><Node Cut="1.04210043" IVar="BToKEE_k_ptN" NCoef="0" cType="1" depth="5" nType="0" pos="l" purity="0.0e+00" res="0.0e+00" rms="0.0e+00" /><Node Cut="0.324297488" IVar="BToKEE_k_ptN" NCoef="0" cType="1" depth="5" nType="0" pos="r" purity="0.0e+00" res="0.0e+00" rms="0.0e+00" /></Node><Node Cut="2.40690088" IVar="BToKEE_l_xy_sig" NCoef="0" cType="1" depth="4" nType="0" pos="r" purity="0.0e+00" res="0.0e+00" rms="0.0e+00"><Node Cut="27.1342773" IVar="BToKEE_iso04" NCoef="0" cType="1" depth="5" nType="0" pos="l" purity="0.0e+00" res="0.0e+00" rms="0.0e+00" /><Node Cut="0.047216028" IVar="BToKEE_minDR" NCoef="0" cType="1" depth="5" nType="0" pos="r" purity="0.0e+00" res="0.0e+00" rms="0.0e+00" /></Node></Node></Node></Node></Node><Node Cut="0.0e+00" IVar="-1" NCoef="0" cType="1" depth="6" nType="-99" pos="s" purity="0.0e+00" res="-0.190039322" rms="0.0e+00" /><Node Cut="0.0e+00" IVar="-1" NCoef="0" cType="1" depth="6" nType="-99" pos="s" purity="0.0e+00" res="-0.112244897" rms="0.0e+00" /><Node Cut="0.0e+00" IVar="-1" NCoef="0" cType="1" depth="6" nType="-99" pos="s" purity="0.0e+00" res="-0.100000001" rms="0.0e+00" /><Node Cut="0.0e+00" IVar="-1" NCoef="0" cType="1" depth="6" nType="-99" pos="s" purity="0.0e+00" res="0.124137931" rms="0.0e+00" /><Node Cut="0.0e+00" IVar="-1" NCoef="0" cType="1" depth="6" nType="-99" pos="s" purity="0.0e+00" res="-0.19834514" rms="0.0e+00" /><Node Cut="0.0e+00" IVar="-1" NCoef="0" cType="1" depth="6" nType="-99" pos="s" purity="0.0e+00" res="-0.140425533" rms="0.0e+00" /><Node Cut="0.0e+00" IVar="-1" NCoef="0" cType="1" depth="6" nType="-99" pos="s" purity="0.0e+00" res="0.0666666701" rms="0.0e+00" /><Node Cut="0.0e+00" IVar="-1" NCoef="0" cType="1" depth="6" nType="-99" pos="s" purity="0.0e+00" res="-0.175862074" rms="0.0e+00" /><Node Cut="0.0e+00" IVar="-1" NCoef="0" cType="1" depth="6" nType="-99" pos="s" purity="0.0e+00" res="0.0500000007" rms="0.0e+00" /><Node Cut="0.0e+00" IVar="-1" NCoef="0" cType="1" depth="6" nType="-99" pos="s" purity="0.0e+00" res="-0.194503829" rms="0.0e+00" /><Node Cut="0.0e+00" IVar="-1" NCoef="0" cType="1" depth="6" nType="-99" pos="s" purity="0.0e+00" res="0.101369858" rms="0.0e+00" /><Node Cut="0.0e+00" IVar="-1" NCoef="0" cType="1" depth="6" nType="-99" pos="s" purity="0.0e+00" res="-0.121518984" rms="0.0e+00" /><Node Cut="0.0e+00" IVar="-1" NCoef="0" cType="1" depth="6" nType="-99" pos="s" purity="0.0e+00" res="-0.177777782" rms="0.0e+00" /><Node Cut="0.0e+00" IVar="-1" NCoef="0" cType="1" depth="6" nType="-99" pos="s" purity="0.0e+00" res="0.0500000007" rms="0.0e+00" /><Node Cut="0.0e+00" IVar="-1" NCoef="0" cType="1" depth="6" nType="-99" pos="s" purity="0.0e+00" res="0.171739131" rms="0.0e+00" /><Node Cut="0.0e+00" IVar="-1" NCoef="0" cType="1" depth="6" nType="-99" pos="s" purity="0.0e+00" res="-0.0129032256" rms="0.0e+00" /><Node Cut="0.0e+00" IVar="-1" NCoef="0" cType="1" depth="6" nType="-99" pos="s" purity="0.0e+00" res="-0" rms="0.0e+00" /><Node Cut="0.0e+00" IVar="-1" NCoef="0" cType="1" depth="6" nType="-99" pos="s" purity="0.0e+00" res="-0.171428576" rms="0.0e+00" /><Node Cut="0.0e+00" IVar="-1" NCoef="0" cType="1" depth="6" nType="-99" pos="s" purity="0.0e+00" res="-0.111111119" rms="0.0e+00" /><Node Cut="0.0e+00" IVar="-1" NCoef="0" cType="1" depth="6" nType="-99" pos="s" purity="0.0e+00" res="0.186363637" rms="0.0e+00" /><Node Cut="0.0e+00" IVar="-1" NCoef="0" cType="1" depth="6" nType="-99" pos="s" purity="0.0e+00" res="-0.193434939" rms="0.0e+00" /><Node Cut="0.0e+00" IVar="-1" NCoef="0" cType="1" depth="6" nType="-99" pos="s" purity="0.0e+00" res="-0.0947368443" rms="0.0e+00" /><Node Cut="0.0e+00" IVar="-1" NCoef="0" cType="1" depth="6" nType="-99" pos="s" purity="0.0e+00" res="-0.147368416" rms="0.0e+00" /><Node Cut="0.0e+00" IVar="-1" NCoef="0" cType="1" depth="6" nType="-99" pos="s" purity="0.0e+00" res="0.150000006" rms="0.0e+00" /><Node Cut="0.0e+00" IVar="-1" NCoef="0" cType="1" depth="6" nType="-99" pos="s" purity="0.0e+00" res="-0" rms="0.0e+00" /><Node Cut="0.0e+00" IVar="-1" NCoef="0" cType="1" depth="6" nType="-99" pos="s" purity="0.0e+00" res="-0.185454547" rms="0.0e+00" /><Node Cut="0.0e+00" IVar="-1" NCoef="0" cType="1" depth="6" nType="-99" pos="s" purity="0.0e+00" res="-0.13333334" rms="0.0e+00" /><Node Cut="0.0e+00" IVar="-1" NCoef="0" cType="1" depth="6" nType="-99" pos="s" purity="0.0e+00" res="0.0823529437" rms="0.0e+00" /><Node Cut="0.0e+00" IVar="-1" NCoef="0" cType="1" depth="6" nType="-99" pos="s" purity="0.0e+00" res="0.108333342" rms="0.0e+00" /><Node Cut="0.0e+00" IVar="-1" NCoef="0" cType="1" depth="6" nType="-99" pos="s" purity="0.0e+00" res="-0.146666676" rms="0.0e+00" /><Node Cut="0.0e+00" IVar="-1" NCoef="0" cType="1" depth="6" nType="-99" pos="s" purity="0.0e+00" res="-0.0153846163" rms="0.0e+00" /><Node Cut="0.0e+00" IVar="-1" NCoef="0" cType="1" depth="6" nType="-99" pos="s" purity="0.0e+00" res="0.194473237" rms="0.0e+00" /><Node Cut="0.0e+00" IVar="-1" NCoef="0" cType="1" depth="6" nType="-99" pos="s" purity="0.0e+00" res="-0.118518524" rms="0.0e+00" /><Node Cut="0.0e+00" IVar="-1" NCoef="0" cType="1" depth="6" nType="-99" pos="s" purity="0.0e+00" res="0.140000001" rms="0.0e+00" /><Node Cut="0.0e+00" IVar="-1" NCoef="0" cType="1" depth="6" nType="-99" pos="s" purity="0.0e+00" res="-0.187377915" rms="0.0e+00" /><Node Cut="0.0e+00" IVar="-1" NCoef="0" cType="1" depth="6" nType="-99" pos="s" purity="0.0e+00" res="-0.0800000057" rms="0.0e+00" /><Node Cut="0.0e+00" IVar="-1" NCoef="0" cType="1" depth="6" nType="-99" pos="s" purity="0.0e+00" res="0.143749997" rms="0.0e+00" /><Node Cut="0.0e+00" IVar="-1" NCoef="0" cType="1" depth="6" nType="-99" pos="s" purity="0.0e+00" res="-0.0782608688" rms="0.0e+00" /><Node Cut="0.0e+00" IVar="-1" NCoef="0" cType="1" depth="6" nType="-99" pos="s" purity="0.0e+00" res="-0.16744186" rms="0.0e+00" /><Node Cut="0.0e+00" IVar="-1" NCoef="0" cType="1" depth="6" nType="-99" pos="s" purity="0.0e+00" res="0.0666666701" rms="0.0e+00" /><Node Cut="0.0e+00" IVar="-1" NCoef="0" cType="1" depth="6" nType="-99" pos="s" purity="0.0e+00" res="-0.131428584" rms="0.0e+00" /><Node Cut="0.0e+00" IVar="-1" NCoef="0" cType="1" depth="6" nType="-99" pos="s" purity="0.0e+00" res="0.100990109" rms="0.0e+00" /><Node Cut="0.0e+00" IVar="-1" NCoef="0" cType="1" depth="6" nType="-99" pos="s" purity="0.0e+00" res="0.0600000024" rms="0.0e+00" /><Node Cut="0.0e+00" IVar="-1" NCoef="0" cType="1" depth="6" nType="-99" pos="s" purity="0.0e+00" res="-0.160120845" rms="0.0e+00" /><Node Cut="0.0e+00" IVar="-1" NCoef="0" cType="1" depth="6" nType="-99" pos="s" purity="0.0e+00" res="0.178431377" rms="0.0e+00" /><Node Cut="0.0e+00" IVar="-1" NCoef="0" cType="1" depth="6" nType="-99" pos="s" purity="0.0e+00" res="-0.00952380989" rms="0.0e+00" /><Node Cut="0.0e+00" IVar="-1" NCoef="0" cType="1" depth="6" nType="-99" pos="s" purity="0.0e+00" res="-0.0666666701" rms="0.0e+00" /><Node Cut="0.0e+00" IVar="-1" NCoef="0" cType="1" depth="6" nType="-99" pos="s" purity="0.0e+00" res="0.127272725" rms="0.0e+00" /><Node Cut="0.0e+00" IVar="-1" NCoef="0" cType="1" depth="6" nType="-99" pos="s" purity="0.0e+00" res="0.163636371" rms="0.0e+00" /><Node Cut="0.0e+00" IVar="-1" NCoef="0" cType="1" depth="6" nType="-99" pos="s" purity="0.0e+00" res="-0.0500000007" rms="0.0e+00" /><Node Cut="0.0e+00" IVar="-1" NCoef="0" cType="1" depth="6" nType="-99" pos="s" purity="0.0e+00" res="0.105882362" rms="0.0e+00" /><Node Cut="0.0e+00" IVar="-1" NCoef="0" cType="1" depth="6" nType="-99" pos="s" purity="0.0e+00" res="-0.165517256" rms="0.0e+00" /><Node Cut="0.0e+00" IVar="-1" NCoef="0" cType="1" depth="6" nType="-99" pos="s" purity="0.0e+00" res="-0.0909090936" rms="0.0e+00" /><Node Cut="0.0e+00" IVar="-1" NCoef="0" cType="1" depth="6" nType="-99" pos="s" purity="0.0e+00" res="0.178242683" rms="0.0e+00" /><Node Cut="0.0e+00" IVar="-1" NCoef="0" cType="1" depth="6" nType="-99" pos="s" purity="0.0e+00" res="-0.0864197537" rms="0.0e+00" /><Node Cut="0.0e+00" IVar="-1" NCoef="0" cType="1" depth="6" nType="-99" pos="s" purity="0.0e+00" res="0.111392401" rms="0.0e+00" /><Node Cut="0.0e+00" IVar="-1" NCoef="0" cType="1" depth="6" nType="-99" pos="s" purity="0.0e+00" res="-0.125" rms="0.0e+00" /><Node Cut="0.0e+00" IVar="-1" NCoef="0" cType="1" depth="6" nType="-99" pos="s" purity="0.0e+00" res="0.131034479" rms="0.0e+00" /><Node Cut="0.0e+00" IVar="-1" NCoef="0" cType="1" depth="6" nType="-99" pos="s" purity="0.0e+00" res="-0.0181818195" rms="0.0e+00" /><Node Cut="0.0e+00" IVar="-1" NCoef="0" cType="1" depth="6" nType="-99" pos="s" purity="0.0e+00" res="0.180645153" rms="0.0e+00" /><Node Cut="0.0e+00" IVar="-1" NCoef="0" cType="1" depth="6" nType="-99" pos="s" purity="0.0e+00" res="0.157500014" rms="0.0e+00" /><Node Cut="0.0e+00" IVar="-1" NCoef="0" cType="1" depth="6" nType="-99" pos="s" purity="0.0e+00" res="-0.0736842081" rms="0.0e+00" /><Node Cut="0.0e+00" IVar="-1" NCoef="0" cType="1" depth="6" nType="-99" pos="s" purity="0.0e+00" res="0.0181818195" rms="0.0e+00" /><Node Cut="0.0e+00" IVar="-1" NCoef="0" cType="1" depth="6" nType="-99" pos="s" purity="0.0e+00" res="0.196758702" rms="0.0e+00" /></BinaryTree><BinaryTree boostWeight="1.0e+00" itree="1" type="DecisionTree"><Node Cut="0.0978284478" IVar="BToKEE_l1_pfmvaId" NCoef="0" cType="1" depth="0" nType="0" pos="s" purity="0.0e+00" res="0.0e+00" rms="0.0e+00"><Node Cut="0.999489307" IVar="BToKEE_cos2D" NCoef="0" cType="1" depth="1" nType="0" pos="l" purity="0.0e+00" res="0.0e+00" rms="0.0e+00"><Node Cut="0.194503695" IVar="BToKEE_l2_pfmvaId" NCoef="0" cType="1" depth="2" nType="0" pos="l" purity="0.0e+00" res="0.0e+00" rms="0.0e+00"><Node Cut="3.43896484" IVar="BToKEE_l2_iso04" NCoef="0" cType="1" depth="3" nType="0" pos="l" purity="0.0e+00" res="0.0e+00" rms="0.0e+00"><Node Cut="-1.26320505" IVar="BToKEE_l1_pfmvaId" NCoef="0" cType="1" depth="4" nType="0" pos="l" purity="0.0e+00" res="0.0e+00" rms="0.0e+00"><Node Cut="3.3671875" IVar="BToKEE_k_dxySig" NCoef="0" cType="1" depth="5" nType="0" pos="l" purity="0.0e+00" res="0.0e+00" rms="0.0e+00" /><Node Cut="-2.12151408" IVar="BToKEE_l2_pfmvaId" NCoef="0" cType="1" depth="5" nType="0" pos="r" purity="0.0e+00" res="0.0e+00" rms="0.0e+00" /></Node><Node Cut="-8.1953125" IVar="BToKEE_k_dxySig" NCoef="0" cType="1" depth="4" nType="0" pos="r" purity="0.0e+00" res="0.0e+00" rms="0.0e+00"><Node Cut="8.32250977" IVar="BToKEE_l1_iso04" NCoef="0" cType="1" depth="5" nType="0" pos="l" purity="0.0e+00" res="0.0e+00" rms="0.0e+00" /><Node Cut="-0.829206467" IVar="BToKEE_l1_pfmvaId" NCoef="0" cType="1" depth="5" nType="0" pos="r" purity="0.0e+00" res="0.0e+00" rms="0.0e+00" /></Node></Node><Node Cut="-1.18117154" IVar="BToKEE_l1_pfmvaId" NCoef="0" cType="1" depth="3" nType="0" pos="r" purity="0.0e+00" res="0.0e+00" rms="0.0e+00"><Node Cut="0.610153675" IVar="BToKEE_k_ptN" NCoef="0" cType="1" depth="4" nType="0" pos="l" purity="0.0e+00" res="0.0e+00" rms="0.0e+00"><Node Cut="-5.90234375" IVar="BToKEE_k_dxySig" NCoef="0" cType="1" depth="5" nType="0" pos="l" purity="0.0e+00" res="0.0e+00" rms="0.0e+00" /><Node Cut="11.411377" IVar="BToKEE_k_iso04" NCoef="0" cType="1" depth="5" nType="0" pos="r" purity="0.0e+00" res="0.0e+00" rms="0.0e+00" /></Node><Node Cut="6.84619141" IVar="BToKEE_l2_iso04" NCoef="0" cType="1" depth="4" nType="0" pos="r" purity="0.0e+00" res="0.0e+00" rms="0.0e+00"><Node Cut="0.917204738" IVar="BToKEE_cos2D" NCoef="0" cType="1" depth="5" nType="0" pos="l" purity="0.0e+00" res="0.0e+00" rms="0.0e+00" /><Node Cut="0.995972037" IVar="BToKEE_cos2D" NCoef="0" cType="1" depth="5" nType="0" pos="r" purity="0.0e+00" res="0.0e+00" rms="0.0e+00" /></Node></Node></Node><Node Cut="-1.88453436" IVar="BToKEE_l1_pfmvaId" NCoef="0" cType="1" depth="2" nType="0" pos="r" purity="0.0e+00" res="0.0e+00" rms="0.0e+00"><Node Cut="0.13461417" IVar="BToKEE_l2_pfmvaId" NCoef="0" cType="1" depth="3" nType="0" pos="l" purity="0.0e+00" res="0.0e+00" rms="0.0e+00"><Node Cut="-6.99023438" IVar="BToKEE_k_dxySig" NCoef="0" cType="1" depth="4" nType="0" pos="l" purity="0.0e+00" res="0.0e+00" rms="0.0e+00"><Node Cut="0.464496493" IVar="BToKEE_k_ptN" NCoef="0" cType="1" depth="5" nType="0" pos="l" purity="0.0e+00" res="0.0e+00" rms="0.0e+00" /><Node Cut="-4.55608177" IVar="BToKEE_l2_dxySig" NCoef="0" cType="1" depth="5" nType="0" pos="r" purity="0.0e+00" res="0.0e+00" rms="0.0e+00" /></Node><Node Cut="0.965871453" IVar="BToKEE_maxDR" NCoef="0" cType="1" depth="4" nType="0" pos="r" purity="0.0e+00" res="0.0e+00" rms="0.0e+00"><Node Cut="2.94767022" IVar="BToKEE_l_xy_sig" NCoef="0" cType="1" depth="5" nType="0" pos="l" purity="0.0e+00" res="0.0e+00" rms="0.0e+00" /><Node Cut="9.42944336" IVar="BToKEE_l1_iso04" NCoef="0" cType="1" depth="5" nType="0" pos="r" purity="0.0e+00" res="0.0e+00" rms="0.0e+00" /></Node></Node><Node Cut="0.261615753" IVar="BToKEE_k_ptN" NCoef="0" cType="1" depth="3" nType="0" pos="r" purity="0.0e+00" res="0.0e+00" rms="0.0e+00"><Node Cut="8.69392776" IVar="BToKEE_l_xy_sig" NCoef="0" cType="1" depth="4" nType="0" pos="l" purity="0.0e+00" res="0.0e+00" rms="0.0e+00"><Node Cut="10.2819824" IVar="BToKEE_l1_iso04" NCoef="0" cType="1" depth="5" nType="0" pos="l" purity="0.0e+00" res="0.0e+00" rms="0.0e+00" /><Node Cut="0.263937294" IVar="BToKEE_minDR" NCoef="0" cType="1" depth="5" nType="0" pos="r" purity="0.0e+00" res="0.0e+00" rms="0.0e+00" /></Node><Node Cut="2.84191751" IVar="BToKEE_l_xy_sig" NCoef="0" cType="1" depth="4" nType="0" pos="r" purity="0.0e+00" res="0.0e+00" rms="0.0e+00"><Node Cut="10.0554199" IVar="BToKEE_l1_iso04" NCoef="0" cType="1" depth="5" nType="0" pos="l" purity="0.0e+00" res="0.0e+00" rms="0.0e+00" /><Node Cut="-2.86311197" IVar="BToKEE_l2_pfmvaId" NCoef="0" cType="1" depth="5" nType="0" pos="r" purity="0.0e+00" res="0.0e+00" rms="0.0e+00" /></Node></Node></Node></Node><Node Cut="0.992636502" IVar="BToKEE_cos2D" NCoef="0" cType="1" depth="1" nType="0" pos="r" purity="0.0e+00" res="0.0e+00" rms="0.0e+00"><Node Cut="-0.150028855" IVar="BToKEE_l2_pfmvaId" NCoef="0" cType="1" depth="2" nType="0" pos="l" purity="0.0e+00" res="0.0e+00" rms="0.0e+00"><Node Cut="7.55297852" IVar="BToKEE_l1_iso04" NCoef="0" cType="1" depth="3" nType="0" pos="l" purity="0.0e+00" res="0.0e+00" rms="0.0e+00"><Node Cut="0.441486478" IVar="BToKEE_k_ptN" NCoef="0" cType="1" depth="4" nType="0" pos="l" purity="0.0e+00" res="0.0e+00" rms="0.0e+00"><Node Cut="0.922728539" IVar="BToKEE_cos2D" NCoef="0" cType="1" depth="5" nType="0" pos="l" purity="0.0e+00" res="0.0e+00" rms="0.0e+00" /><Node Cut="15.1606445" IVar="BToKEE_k_iso04" NCoef="0" cType="1" depth="5" nType="0" pos="r" purity="0.0e+00" res="0.0e+00" rms="0.0e+00" /></Node><Node Cut="1.23863983" IVar="BToKEE_k_ptN" NCoef="0" cType="1" depth="4" nType="0" pos="r" purity="0.0e+00" res="0.0e+00" rms="0.0e+00"><Node Cut="4.40234375" IVar="BToKEE_k_dxySig" NCoef="0" cType="1" depth="5" nType="0" pos="l" purity="0.0e+00" res="0.0e+00" rms="0.0e+00" /><Node Cut="40.2246094" IVar="BToKEE_iso04" NCoef="0" cType="1" depth="5" nType="0" pos="r" purity="0.0e+00" res="0.0e+00" rms="0.0e+00" /></Node></Node><Node Cut="0.273593277" IVar="BToKEE_k_ptN" NCoef="0" cType="1" depth="3" nType="0" pos="r" purity="0.0e+00" res="0.0e+00" rms="0.0e+00"><Node Cut="6.36010742" IVar="BToKEE_l2_iso04" NCoef="0" cType="1" depth="4" nType="0" pos="l" purity="0.0e+00" res="0.0e+00" rms="0.0e+00"><Node Cut="0.578034878" IVar="BToKEE_l1_pfmvaId" NCoef="0" cType="1" depth="5" nType="0" pos="l" purity="0.0e+00" res="0.0e+00" rms="0.0e+00" /><Node Cut="1.14185214" IVar="BToKEE_maxDR" NCoef="0" cType="1" depth="5" nType="0" pos="r" purity="0.0e+00" res="0.0e+00" rms="0.0e+00" /></Node><Node Cut="12.1936035" IVar="BToKEE_l1_iso04" NCoef="0" cType="1" depth="4" nType="0" pos="r" purity="0.0e+00" res="0.0e+00" rms="0.0e+00"><Node Cut="0.901152015" IVar="BToKEE_cos2D" NCoef="0" cType="1" depth="5" nType="0" pos="l" purity="0.0e+00" res="0.0e+00" rms="0.0e+00" /><Node Cut="0.516249895" IVar="BToKEE_k_ptN" NCoef="0" cType="1" depth="5" nType="0" pos="r" purity="0.0e+00" res="0.0e+00" rms="0.0e+00" /></Node></Node></Node><Node Cut="0.212802514" IVar="BToKEE_k_ptN" NCoef="0" cType="1" depth="2" nType="0" pos="r" purity="0.0e+00" res="0.0e+00" rms="0.0e+00"><Node Cut="-0.30548349" IVar="BToKEE_l2_pfmvaId" NCoef="0" cType="1" depth="3" nType="0" pos="l" purity="0.0e+00" res="0.0e+00" rms="0.0e+00"><Node Cut="-3.85839844" IVar="BToKEE_k_dxySig" NCoef="0" cType="1" depth="4" nType="0" pos="l" purity="0.0e+00" res="0.0e+00" rms="0.0e+00"><Node Cut="14.3476562" IVar="BToKEE_iso04" NCoef="0" cType="1" depth="5" nType="0" pos="l" purity="0.0e+00" res="0.0e+00" rms="0.0e+00" /><Node Cut="3.69067383" IVar="BToKEE_l1_iso04" NCoef="0" cType="1" depth="5" nType="0" pos="r" purity="0.0e+00" res="0.0e+00" rms="0.0e+00" /></Node><Node Cut="0.0785898715" IVar="BToKEE_svprob" NCoef="0" cType="1" depth="4" nType="0" pos="r" purity="0.0e+00" res="0.0e+00" rms="0.0e+00"><Node Cut="6.50512695" IVar="BToKEE_l1_iso04" NCoef="0" cType="1" depth="5" nType="0" pos="l" purity="0.0e+00" res="0.0e+00" rms="0.0e+00" /><Node Cut="16.9921875" IVar="BToKEE_iso04" NCoef="0" cType="1" depth="5" nType="0" pos="r" purity="0.0e+00" res="0.0e+00" rms="0.0e+00" /></Node></Node><Node Cut="-2.84909964" IVar="BToKEE_l2_pfmvaId" NCoef="0" cType="1" depth="3" nType="0" pos="r" purity="0.0e+00" res="0.0e+00" rms="0.0e+00"><Node Cut="0.999310851" IVar="BToKEE_cos2D" NCoef="0" cType="1" depth="4" nType="0" pos="l" purity="0.0e+00" res="0.0e+00" rms="0.0e+00"><Node Cut="6.10913086" IVar="BToKEE_l1_iso04" NCoef="0" cType="1" depth="5" nType="0" pos="l" purity="0.0e+00" res="0.0e+00" rms="0.0e+00" /><Node Cut="0.339325309" IVar="BToKEE_k_ptN" NCoef="0" cType="1" depth="5" nType="0" pos="r" purity="0.0e+00" res="0.0e+00" rms="0.0e+00" /></Node><Node Cut="1.6963613" IVar="BToKEE_l_xy_sig" NCoef="0" cType="1" depth="4" nType="0" pos="r" purity="0.0e+00" res="0.0e+00" rms="0.0e+00"><Node Cut="0.500779271" IVar="BToKEE_k_ptN" NCoef="0" cType="1" depth="5" nType="0" pos="l" purity="0.0e+00" res="0.0e+00" rms="0.0e+00" /><Node Cut="0.0197037626" IVar="BToKEE_svprob" NCoef="0" cType="1" depth="5" nType="0" pos="r" purity="0.0e+00" res="0.0e+00" rms="0.0e+00" /></Node></Node></Node></Node></Node><Node Cut="0.0e+00" IVar="-1" NCoef="0" cType="1" depth="6" nType="-99" pos="s" purity="0.0e+00" res="-0.166749343" rms="0.0e+00" /><Node Cut="0.0e+00" IVar="-1" NCoef="0" cType="1" depth="6" nType="-99" pos="s" purity="0.0e+00" res="0.0929558873" rms="0.0e+00" /><Node Cut="0.0e+00" IVar="-1" NCoef="0" cType="1" depth="6" nType="-99" pos="s" purity="0.0e+00" res="-0.134458199" rms="0.0e+00" /><Node Cut="0.0e+00" IVar="-1" NCoef="0" cType="1" depth="6" nType="-99" pos="s" purity="0.0e+00" res="0.136631355" rms="0.0e+00" /><Node Cut="0.0e+00" IVar="-1" NCoef="0" cType="1" depth="6" nType="-99" pos="s" purity="0.0e+00" res="0.0791615546" rms="0.0e+00" /><Node Cut="0.0e+00" IVar="-1" NCoef="0" cType="1" depth="6" nType="-99" pos="s" purity="0.0e+00" res="-0.152060673" rms="0.0e+00" /><Node Cut="0.0e+00" IVar="-1" NCoef="0" cType="1" depth="6" nType="-99" pos="s" purity="0.0e+00" res="-0.18114686" rms="0.0e+00" /><Node Cut="0.0e+00" IVar="-1" NCoef="0" cType="1" depth="6" nType="-99" pos="s" purity="0.0e+00" res="-0.165250167" rms="0.0e+00" /><Node Cut="0.0e+00" IVar="-1" NCoef="0" cType="1" depth="6" nType="-99" pos="s" purity="0.0e+00" res="0.0433978736" rms="0.0e+00" /><Node Cut="0.0e+00" IVar="-1" NCoef="0" cType="1" depth="6" nType="-99" pos="s" purity="0.0e+00" res="-0.174168155" rms="0.0e+00" /><Node Cut="0.0e+00" IVar="-1" NCoef="0" cType="1" depth="6" nType="-99" pos="s" purity="0.0e+00" res="0.127747372" rms="0.0e+00" /><Node Cut="0.0e+00" IVar="-1" NCoef="0" cType="1" depth="6" nType="-99" pos="s" purity="0.0e+00" res="-0.128993005" rms="0.0e+00" /><Node Cut="0.0e+00" IVar="-1" NCoef="0" cType="1" depth="6" nType="-99" pos="s" purity="0.0e+00" res="-0.0200674273" rms="0.0e+00" /><Node Cut="0.0e+00" IVar="-1" NCoef="0" cType="1" depth="6" nType="-99" pos="s" purity="0.0e+00" res="0.146012932" rms="0.0e+00" /><Node Cut="0.0e+00" IVar="-1" NCoef="0" cType="1" depth="6" nType="-99" pos="s" purity="0.0e+00" res="-0.1374235" rms="0.0e+00" /><Node Cut="0.0e+00" IVar="-1" NCoef="0" cType="1" depth="6" nType="-99" pos="s" purity="0.0e+00" res="0.076956138" rms="0.0e+00" /><Node Cut="0.0e+00" IVar="-1" NCoef="0" cType="1" depth="6" nType="-99" pos="s" purity="0.0e+00" res="-0.101344369" rms="0.0e+00" /><Node Cut="0.0e+00" IVar="-1" NCoef="0" cType="1" depth="6" nType="-99" pos="s" purity="0.0e+00" res="0.129000619" rms="0.0e+00" /><Node Cut="0.0e+00" IVar="-1" NCoef="0" cType="1" depth="6" nType="-99" pos="s" purity="0.0e+00" res="0.0124801369" rms="0.0e+00" /><Node Cut="0.0e+00" IVar="-1" NCoef="0" cType="1" depth="6" nType="-99" pos="s" purity="0.0e+00" res="-0.17683804" rms="0.0e+00" /><Node Cut="0.0e+00" IVar="-1" NCoef="0" cType="1" depth="6" nType="-99" pos="s" purity="0.0e+00" res="-0.0887581557" rms="0.0e+00" /><Node Cut="0.0e+00" IVar="-1" NCoef="0" cType="1" depth="6" nType="-99" pos="s" purity="0.0e+00" res="0.156803235" rms="0.0e+00" /><Node Cut="0.0e+00" IVar="-1" NCoef="0" cType="1" depth="6" nType="-99" pos="s" purity="0.0e+00" res="0.0595644824" rms="0.0e+00" /><Node Cut="0.0e+00" IVar="-1" NCoef="0" cType="1" depth="6" nType="-99" pos="s" purity="0.0e+00" res="-0.162676916" rms="0.0e+00" /><Node Cut="0.0e+00" IVar="-1" NCoef="0" cType="1" depth="6" nType="-99" pos="s" purity="0.0e+00" res="-0.0615778677" rms="0.0e+00" /><Node Cut="0.0e+00" IVar="-1" NCoef="0" cType="1" depth="6" nType="-99" pos="s" purity="0.0e+00" res="-0.176344961" rms="0.0e+00" /><Node Cut="0.0e+00" IVar="-1" NCoef="0" cType="1" depth="6" nType="-99" pos="s" purity="0.0e+00" res="-0.148314089" rms="0.0e+00" /><Node Cut="0.0e+00" IVar="-1" NCoef="0" cType="1" depth="6" nType="-99" pos="s" purity="0.0e+00" res="0.146299765" rms="0.0e+00" /><Node Cut="0.0e+00" IVar="-1" NCoef="0" cType="1" depth="6" nType="-99" pos="s" purity="0.0e+00" res="0.0617846064" rms="0.0e+00" /><Node Cut="0.0e+00" IVar="-1" NCoef="0" cType="1" depth="6" nType="-99" pos="s" purity="0.0e+00" res="-0.127858862" rms="0.0e+00" /><Node Cut="0.0e+00" IVar="-1" NCoef="0" cType="1" depth="6" nType="-99" pos="s" purity="0.0e+00" res="0.00882839784" rms="0.0e+00" /><Node Cut="0.0e+00" IVar="-1" NCoef="0" cType="1" depth="6" nType="-99" pos="s" purity="0.0e+00" res="0.175936639" rms="0.0e+00" /><Node Cut="0.0e+00" IVar="-1" NCoef="0" cType="1" depth="6" nType="-99" pos="s" purity="0.0e+00" res="-0.159476787" rms="0.0e+00" /><Node Cut="0.0e+00" IVar="-1" NCoef="0" cType="1" depth="6" nType="-99" pos="s" purity="0.0e+00" res="-0.0303796325" rms="0.0e+00" /><Node Cut="0.0e+00" IVar="-1" NCoef="0" cType="1" depth="6" nType="-99" pos="s" purity="0.0e+00" res="0.123752117" rms="0.0e+00" /><Node Cut="0.0e+00" IVar="-1" NCoef="0" cType="1" depth="6" nType="-99" pos="s" purity="0.0e+00" res="-0.128847763" rms="0.0e+00" /><Node Cut="0.0e+00" IVar="-1" NCoef="0" cType="1" depth="6" nType="-99" pos="s" purity="0.0e+00" res="-0.173209399" rms="0.0e+00" /><Node Cut="0.0e+00" IVar="-1" NCoef="0" cType="1" depth="6" nType="-99" pos="s" purity="0.0e+00" res="-0.0303627234" rms="0.0e+00" /><Node Cut="0.0e+00" IVar="-1" NCoef="0" cType="1" depth="6" nType="-99" pos="s" purity="0.0e+00" res="0.135852322" rms="0.0e+00" /><Node Cut="0.0e+00" IVar="-1" NCoef="0" cType="1" depth="6" nType="-99" pos="s" purity="0.0e+00" res="-0.120996974" rms="0.0e+00" /><Node Cut="0.0e+00" IVar="-1" NCoef="0" cType="1" depth="6" nType="-99" pos="s" purity="0.0e+00" res="-0.12084087" rms="0.0e+00" /><Node Cut="0.0e+00" IVar="-1" NCoef="0" cType="1" depth="6" nType="-99" pos="s" purity="0.0e+00" res="0.0755361021" rms="0.0e+00" /><Node Cut="0.0e+00" IVar="-1" NCoef="0" cType="1" depth="6" nType="-99" pos="s" purity="0.0e+00" res="-0.014050466" rms="0.0e+00" /><Node Cut="0.0e+00" IVar="-1" NCoef="0" cType="1" depth="6" nType="-99" pos="s" purity="0.0e+00" res="-0.153376818" rms="0.0e+00" /><Node Cut="0.0e+00" IVar="-1" NCoef="0" cType="1" depth="6" nType="-99" pos="s" purity="0.0e+00" res="0.0615452528" rms="0.0e+00" /><Node Cut="0.0e+00" IVar="-1" NCoef="0" cType="1" depth="6" nType="-99" pos="s" purity="0.0e+00" res="0.172050223" rms="0.0e+00" /><Node Cut="0.0e+00" IVar="-1" NCoef="0" cType="1" depth="6" nType="-99" pos="s" purity="0.0e+00" res="-0.0885187164" rms="0.0e+00" /><Node Cut="0.0e+00" IVar="-1" NCoef="0" cType="1" depth="6" nType="-99" pos="s" purity="0.0e+00" res="0.103053071" rms="0.0e+00" /><Node Cut="0.0e+00" IVar="-1" NCoef="0" cType="1" depth="6" nType="-99" pos="s" purity="0.0e+00" res="0.158954486" rms="0.0e+00" /><Node Cut="0.0e+00" IVar="-1" NCoef="0" cType="1" depth="6" nType="-99" pos="s" purity="0.0e+00" res="-0.0191472396" rms="0.0e+00" /><Node Cut="0.0e+00" IVar="-1" NCoef="0" cType="1" depth="6" nType="-99" pos="s" purity="0.0e+00" res="0.110631362" rms="0.0e+00" /><Node Cut="0.0e+00" IVar="-1" NCoef="0" cType="1" depth="6" nType="-99" pos="s" purity="0.0e+00" res="-0.152864262" rms="0.0e+00" /><Node Cut="0.0e+00" IVar="-1" NCoef="0" cType="1" depth="6" nType="-99" pos="s" purity="0.0e+00" res="0.116179921" rms="0.0e+00" /><Node Cut="0.0e+00" IVar="-1" NCoef="0" cType="1" depth="6" nType="-99" pos="s" purity="0.0e+00" res="-0.115608387" rms="0.0e+00" /><Node Cut="0.0e+00" IVar="-1" NCoef="0" cType="1" depth="6" nType="-99" pos="s" purity="0.0e+00" res="0.16074793" rms="0.0e+00" /><Node Cut="0.0e+00" IVar="-1" NCoef="0" cType="1" depth="6" nType="-99" pos="s" purity="0.0e+00" res="0.0024788382" rms="0.0e+00" /><Node Cut="0.0e+00" IVar="-1" NCoef="0" cType="1" depth="6" nType="-99" pos="s" purity="0.0e+00" res="0.0223136526" rms="0.0e+00" /><Node Cut="0.0e+00" IVar="-1" NCoef="0" cType="1" depth="6" nType="-99" pos="s" purity="0.0e+00" res="-0.164441511" rms="0.0e+00" /><Node Cut="0.0e+00" IVar="-1" NCoef="0" cType="1" depth="6" nType="-99" pos="s" purity="0.0e+00" res="-0.0754112452" rms="0.0e+00" /><Node Cut="0.0e+00" IVar="-1" NCoef="0" cType="1" depth="6" nType="-99" pos="s" purity="0.0e+00" res="0.137257203" rms="0.0e+00" /><Node Cut="0.0e+00" IVar="-1" NCoef="0" cType="1" depth="6" nType="-99" pos="s" purity="0.0e+00" res="-0.0643089861" rms="0.0e+00" /><Node Cut="0.0e+00" IVar="-1" NCoef="0" cType="1" depth="6" nType="-99" pos="s" purity="0.0e+00" res="0.145099297" rms="0.0e+00" /><Node Cut="0.0e+00" IVar="-1" NCoef="0" cType="1" depth="6" nType="-99" pos="s" purity="0.0e+00" res="0.117973998" rms="0.0e+00" /><Node Cut="0.0e+00" IVar="-1" NCoef="0" cType="1" depth="6" nType="-99" pos="s" purity="0.0e+00" res="0.178293362" rms="0.0e+00" /></BinaryTree><BinaryTree boostWeight="1.0e+00" itree="2" type="DecisionTree"><Node Cut="0.0978284478" IVar="BToKEE_l1_pfmvaId" NCoef="0" cType="1" depth="0" nType="0" pos="s" purity="0.0e+00" res="0.0e+00" rms="0.0e+00"><Node Cut="0.999489307" IVar="BToKEE_cos2D" NCoef="0" cType="1" depth="1" nType="0" pos="l" purity="0.0e+00" res="0.0e+00" rms="0.0e+00"><Node Cut="0.194503695" IVar="BToKEE_l2_pfmvaId" NCoef="0" cType="1" depth="2" nType="0" pos="l" purity="0.0e+00" res="0.0e+00" rms="0.0e+00"><Node Cut="4.52075195" IVar="BToKEE_l2_iso04" NCoef="0" cType="1" depth="3" nType="0" pos="l" purity="0.0e+00" res="0.0e+00" rms="0.0e+00"><Node Cut="-0.918274283" IVar="BToKEE_l1_pfmvaId" NCoef="0" cType="1" depth="4" nType="0" pos="l" purity="0.0e+00" res="0.0e+00" rms="0.0e+00"><Node Cut="0.998203278" IVar="BToKEE_cos2D" NCoef="0" cType="1" depth="5" nType="0" pos="l" purity="0.0e+00" res="0.0e+00" rms="0.0e+00" /><Node Cut="-0.769466281" IVar="BToKEE_l2_pfmvaId" NCoef="0" cType="1" depth="5" nType="0" pos="r" purity="0.0e+00" res="0.0e+00" rms="0.0e+00" /></Node><Node Cut="-0.829206467" IVar="BToKEE_l1_pfmvaId" NCoef="0" cType="1" depth="4" nType="0" pos="r" purity="0.0e+00" res="0.0e+00" rms="0.0e+00"><Node Cut="-25.03125" IVar="BToKEE_k_dxySig" NCoef="0" cType="1" depth="5" nType="0" pos="l" purity="0.0e+00" res="0.0e+00" rms="0.0e+00" /><Node Cut="0.998420179" IVar="BToKEE_cos2D" NCoef="0" cType="1" depth="5" nType="0" pos="r" purity="0.0e+00" res="0.0e+00" rms="0.0e+00" /></Node></Node><Node Cut="-1.18117154" IVar="BToKEE_l1_pfmvaId" NCoef="0" cType="1" depth="3" nType="0" pos="r" purity="0.0e+00" res="0.0e+00" rms="0.0e+00"><Node Cut="0.610153675" IVar="BToKEE_k_ptN" NCoef="0" cType="1" depth="4" nType="0" pos="l" purity="0.0e+00" res="0.0e+00" rms="0.0e+00"><Node Cut="-5.90234375" IVar="BToKEE_k_dxySig" NCoef="0" cType="1" depth="5" nType="0" pos="l" purity="0.0e+00" res="0.0e+00" rms="0.0e+00" /><Node Cut="17.6459961" IVar="BToKEE_l2_iso04" NCoef="0" cType="1" depth="5" nType="0" pos="r" purity="0.0e+00" res="0.0e+00" rms="0.0e+00" /></Node><Node Cut="0.383975506" IVar="BToKEE_k_ptN" NCoef="0" cType="1" depth="4" nType="0" pos="r" purity="0.0e+00" res="0.0e+00" rms="0.0e+00"><Node Cut="7.50048828" IVar="BToKEE_l1_iso04" NCoef="0" cType="1" depth="5" nType="0" pos="l" purity="0.0e+00" res="0.0e+00" rms="0.0e+00" /><Node Cut="18.8129883" IVar="BToKEE_l2_iso04" NCoef="0" cType="1" depth="5" nType="0" pos="r" purity="0.0e+00" res="0.0e+00" rms="0.0e+00" /></Node></Node></Node><Node Cut="-1.88453436" IVar="BToKEE_l1_pfmvaId" NCoef="0" cType="1" depth="2" nType="0" pos="r" purity="0.0e+00" res="0.0e+00" rms="0.0e+00"><Node Cut="0.841601372" IVar="BToKEE_k_ptN" NCoef="0" cType="1" depth="3" nType="0" pos="l" purity="0.0e+00" res="0.0e+00" rms="0.0e+00"><Node Cut="1.83217955" IVar="BToKEE_l2_pfmvaId" NCoef="0" cType="1" depth="4" nType="0" pos="l" purity="0.0e+00" res="0.0e+00" rms="0.0e+00"><Node Cut="-6.63159657" IVar="BToKEE_l2_dxySig" NCoef="0" cType="1" depth="5" nType="0" pos="l" purity="0.0e+00" res="0.0e+00" rms="0.0e+00" /><Node Cut="8.75610352" IVar="BToKEE_l2_iso04" NCoef="0" cType="1" depth="5" nType="0" pos="r" purity="0.0e+00" res="0.0e+00" rms="0.0e+00" /></Node><Node Cut="6.1287775" IVar="BToKEE_l_xy_sig" NCoef="0" cType="1" depth="4" nType="0" pos="r" purity="0.0e+00" res="0.0e+00" rms="0.0e+00"><Node Cut="0.137623847" IVar="BToKEE_l2_pfmvaId" NCoef="0" cType="1" depth="5" nType="0" pos="l" purity="0.0e+00" res="0.0e+00" rms="0.0e+00" /><Node Cut="0.0921012238" IVar="BToKEE_minDR" NCoef="0" cType="1" depth="5" nType="0" pos="r" purity="0.0e+00" res="0.0e+00" rms="0.0e+00" /></Node></Node><Node Cut="6.77659225" IVar="BToKEE_l_xy_sig" NCoef="0" cType="1" depth="3" nType="0" pos="r" purity="0.0e+00" res="0.0e+00" rms="0.0e+00"><Node Cut="0.824450493" IVar="BToKEE_k_ptN" NCoef="0" cType="1" depth="4" nType="0" pos="l" purity="0.0e+00" res="0.0e+00" rms="0.0e+00"><Node Cut="10.3361816" IVar="BToKEE_l1_iso04" NCoef="0" cType="1" depth="5" nType="0" pos="l" purity="0.0e+00" res="0.0e+00" rms="0.0e+00" /><Node Cut="1.19652939" IVar="BToKEE_l_xy_sig" NCoef="0" cType="1" depth="5" nType="0" pos="r" purity="0.0e+00" res="0.0e+00" rms="0.0e+00" /></Node><Node Cut="0.188058406" IVar="BToKEE_k_ptN" NCoef="0" cType="1" depth="4" nType="0" pos="r" purity="0.0e+00" res="0.0e+00" rms="0.0e+00"><Node Cut="14.9006348" IVar="BToKEE_l2_iso04" NCoef="0" cType="1" depth="5" nType="0" pos="l" purity="0.0e+00" res="0.0e+00" rms="0.0e+00" /><Node Cut="-1.27230692" IVar="BToKEE_l2_pfmvaId" NCoef="0" cType="1" depth="5" nType="0" pos="r" purity="0.0e+00" res="0.0e+00" rms="0.0e+00" /></Node></Node></Node></Node><Node Cut="0.994351387" IVar="BToKEE_cos2D" NCoef="0" cType="1" depth="1" nType="0" pos="r" purity="0.0e+00" res="0.0e+00" rms="0.0e+00"><Node Cut="-0.0925692096" IVar="BToKEE_l2_pfmvaId" NCoef="0" cType="1" depth="2" nType="0" pos="l" purity="0.0e+00" res="0.0e+00" rms="0.0e+00"><Node Cut="0.461369395" IVar="BToKEE_k_ptN" NCoef="0" cType="1" depth="3" nType="0" pos="l" purity="0.0e+00" res="0.0e+00" rms="0.0e+00"><Node Cut="3.37158203" IVar="BToKEE_l1_iso04" NCoef="0" cType="1" depth="4" nType="0" pos="l" purity="0.0e+00" res="0.0e+00" rms="0.0e+00"><Node Cut="0.310411721" IVar="BToKEE_svprob" NCoef="0" cType="1" depth="5" nType="0" pos="l" purity="0.0e+00" res="0.0e+00" rms="0.0e+00" /><Node Cut="1.26773894" IVar="BToKEE_DeltaZ" NCoef="0" cType="1" depth="5" nType="0" pos="r" purity="0.0e+00" res="0.0e+00" rms="0.0e+00" /></Node><Node Cut="13.2272949" IVar="BToKEE_k_iso04" NCoef="0" cType="1" depth="4" nType="0" pos="r" purity="0.0e+00" res="0.0e+00" rms="0.0e+00"><Node Cut="-2.16173887" IVar="BToKEE_l2_pfmvaId" NCoef="0" cType="1" depth="5" nType="0" pos="l" purity="0.0e+00" res="0.0e+00" rms="0.0e+00" /><Node Cut="-0.358180285" IVar="BToKEE_l2_pfmvaId" NCoef="0" cType="1" depth="5" nType="0" pos="r" purity="0.0e+00" res="0.0e+00" rms="0.0e+00" /></Node></Node><Node Cut="0.275084347" IVar="BToKEE_k_ptN" NCoef="0" cType="1" depth="3" nType="0" pos="r" purity="0.0e+00" res="0.0e+00" rms="0.0e+00"><Node Cut="7.11303711" IVar="BToKEE_l1_iso04" NCoef="0" cType="1" depth="4" nType="0" pos="l" purity="0.0e+00" res="0.0e+00" rms="0.0e+00"><Node Cut="0.301845074" IVar="BToKEE_minDR" NCoef="0" cType="1" depth="5" nType="0" pos="l" purity="0.0e+00" res="0.0e+00" rms="0.0e+00" /><Node Cut="1.15174317" IVar="BToKEE_maxDR" NCoef="0" cType="1" depth="5" nType="0" pos="r" purity="0.0e+00" res="0.0e+00" rms="0.0e+00" /></Node><Node Cut="0.951860309" IVar="BToKEE_cos2D" NCoef="0" cType="1" depth="4" nType="0" pos="r" purity="0.0e+00" res="0.0e+00" rms="0.0e+00"><Node Cut="0.417890072" IVar="BToKEE_svprob" NCoef="0" cType="1" depth="5" nType="0" pos="l" purity="0.0e+00" res="0.0e+00" rms="0.0e+00" /><Node Cut="0.003961585" IVar="BToKEE_svprob" NCoef="0" cType="1" depth="5" nType="0" pos="r" purity="0.0e+00" res="0.0e+00" rms="0.0e+00" /></Node></Node></Node><Node Cut="0.208260894" IVar="BToKEE_k_ptN" NCoef="0" cType="1" depth="2" nType="0" pos="r" purity="0.0e+00" res="0.0e+00" rms="0.0e+00"><Node Cut="-0.480252832" IVar="BToKEE_l2_pfmvaId" NCoef="0" cType="1" depth="3" nType="0" pos="l" purity="0.0e+00" res="0.0e+00" rms="0.0e+00"><Node Cut="-3.85839844" IVar="BToKEE_k_dxySig" NCoef="0" cType="1" depth="4" nType="0" pos="l" purity="0.0e+00" res="0.0e+00" rms="0.0e+00"><Node Cut="19.9006348" IVar="BToKEE_l1_iso04" NCoef="0" cType="1" depth="5" nType="0" pos="l" purity="0.0e+00" res="0.0e+00" rms="0.0e+00" /><Node Cut="7.38525391" IVar="BToKEE_l1_iso04" NCoef="0" cType="1" depth="5" nType="0" pos="r" purity="0.0e+00" res="0.0e+00" rms="0.0e+00" /></Node><Node Cut="0.0358480141" IVar="BToKEE_svprob" NCoef="0" cType="1" depth="4" nType="0" pos="r" purity="0.0e+00" res="0.0e+00" rms="0.0e+00"><Node Cut="5.44799805" IVar="BToKEE_l1_iso04" NCoef="0" cType="1" depth="5" nType="0" pos="l" purity="0.0e+00" res="0.0e+00" rms="0.0e+00" /><Node Cut="16.9921875" IVar="BToKEE_iso04" NCoef="0" cType="1" depth="5" nType="0" pos="r" purity="0.0e+00" res="0.0e+00" rms="0.0e+00" /></Node></Node><Node Cut="-1.9342494" IVar="BToKEE_l2_pfmvaId" NCoef="0" cType="1" depth="3" nType="0" pos="r" purity="0.0e+00" res="0.0e+00" rms="0.0e+00"><Node Cut="0.999583006" IVar="BToKEE_cos2D" NCoef="0" cType="1" depth="4" nType="0" pos="l" purity="0.0e+00" res="0.0e+00" rms="0.0e+00"><Node Cut="11.8625488" IVar="BToKEE_iso04" NCoef="0" cType="1" depth="5" nType="0" pos="l" purity="0.0e+00" res="0.0e+00" rms="0.0e+00" /><Node Cut="0.339325309" IVar="BToKEE_k_ptN" NCoef="0" cType="1" depth="5" nType="0" pos="r" purity="0.0e+00" res="0.0e+00" rms="0.0e+00" /></Node><Node Cut="2.40690088" IVar="BToKEE_l_xy_sig" NCoef="0" cType="1" depth="4" nType="0" pos="r" purity="0.0e+00" res="0.0e+00" rms="0.0e+00"><Node Cut="27.1342773" IVar="BToKEE_iso04" NCoef="0" cType="1" depth="5" nType="0" pos="l" purity="0.0e+00" res="0.0e+00" rms="0.0e+00" /><Node Cut="0.047216028" IVar="BToKEE_minDR" NCoef="0" cType="1" depth="5" nType="0" pos="r" purity="0.0e+00" res="0.0e+00" rms="0.0e+00" /></Node></Node></Node></Node></Node><Node Cut="0.0e+00" IVar="-1" NCoef="0" cType="1" depth="6" nType="-99" pos="s" purity="0.0e+00" res="-0.155724689" rms="0.0e+00" /><Node Cut="0.0e+00" IVar="-1" NCoef="0" cType="1" depth="6" nType="-99" pos="s" purity="0.0e+00" res="0.00308989058" rms="0.0e+00" /><Node Cut="0.0e+00" IVar="-1" NCoef="0" cType="1" depth="6" nType="-99" pos="s" purity="0.0e+00" res="-0.0638154522" rms="0.0e+00" /><Node Cut="0.0e+00" IVar="-1" NCoef="0" cType="1" depth="6" nType="-99" pos="s" purity="0.0e+00" res="0.150413364" rms="0.0e+00" /><Node Cut="0.0e+00" IVar="-1" NCoef="0" cType="1" depth="6" nType="-99" pos="s" purity="0.0e+00" res="-0.0397824347" rms="0.0e+00" /><Node Cut="0.0e+00" IVar="-1" NCoef="0" cType="1" depth="6" nType="-99" pos="s" purity="0.0e+00" res="-0.167608544" rms="0.0e+00" /><Node Cut="0.0e+00" IVar="-1" NCoef="0" cType="1" depth="6" nType="-99" pos="s" purity="0.0e+00" res="-0.158554405" rms="0.0e+00" /><Node Cut="0.0e+00" IVar="-1" NCoef="0" cType="1" depth="6" nType="-99" pos="s" purity="0.0e+00" res="-0.0519294515" rms="0.0e+00" /><Node Cut="0.0e+00" IVar="-1" NCoef="0" cType="1" depth="6" nType="-99" pos="s" purity="0.0e+00" res="0.0407840423" rms="0.0e+00" /><Node Cut="0.0e+00" IVar="-1" NCoef="0" cType="1" depth="6" nType="-99" pos="s" purity="0.0e+00" res="-0.16070126" rms="0.0e+00" /><Node Cut="0.0e+00" IVar="-1" NCoef="0" cType="1" depth="6" nType="-99" pos="s" purity="0.0e+00" res="0.0689960718" rms="0.0e+00" /><Node Cut="0.0e+00" IVar="-1" NCoef="0" cType="1" depth="6" nType="-99" pos="s" purity="0.0e+00" res="-0.157186806" rms="0.0e+00" /><Node Cut="0.0e+00" IVar="-1" NCoef="0" cType="1" depth="6" nType="-99" pos="s" purity="0.0e+00" res="0.0638850182" rms="0.0e+00" /><Node Cut="0.0e+00" IVar="-1" NCoef="0" cType="1" depth="6" nType="-99" pos="s" purity="0.0e+00" res="-0.129732206" rms="0.0e+00" /><Node Cut="0.0e+00" IVar="-1" NCoef="0" cType="1" depth="6" nType="-99" pos="s" purity="0.0e+00" res="0.143617675" rms="0.0e+00" /><Node Cut="0.0e+00" IVar="-1" NCoef="0" cType="1" depth="6" nType="-99" pos="s" purity="0.0e+00" res="-0.0728866085" rms="0.0e+00" /><Node Cut="0.0e+00" IVar="-1" NCoef="0" cType="1" depth="6" nType="-99" pos="s" purity="0.0e+00" res="0.0461664312" rms="0.0e+00" /><Node Cut="0.0e+00" IVar="-1" NCoef="0" cType="1" depth="6" nType="-99" pos="s" purity="0.0e+00" res="-0.164230287" rms="0.0e+00" /><Node Cut="0.0e+00" IVar="-1" NCoef="0" cType="1" depth="6" nType="-99" pos="s" purity="0.0e+00" res="0.123547576" rms="0.0e+00" /><Node Cut="0.0e+00" IVar="-1" NCoef="0" cType="1" depth="6" nType="-99" pos="s" purity="0.0e+00" res="-0.0588498786" rms="0.0e+00" /><Node Cut="0.0e+00" IVar="-1" NCoef="0" cType="1" depth="6" nType="-99" pos="s" purity="0.0e+00" res="-0.157154843" rms="0.0e+00" /><Node Cut="0.0e+00" IVar="-1" NCoef="0" cType="1" depth="6" nType="-99" pos="s" purity="0.0e+00" res="-0.00633414043" rms="0.0e+00" /><Node Cut="0.0e+00" IVar="-1" NCoef="0" cType="1" depth="6" nType="-99" pos="s" purity="0.0e+00" res="-0.0345689505" rms="0.0e+00" /><Node Cut="0.0e+00" IVar="-1" NCoef="0" cType="1" depth="6" nType="-99" pos="s" purity="0.0e+00" res="0.15873763" rms="0.0e+00" /><Node Cut="0.0e+00" IVar="-1" NCoef="0" cType="1" depth="6" nType="-99" pos="s" purity="0.0e+00" res="-0.00119944126" rms="0.0e+00" /><Node Cut="0.0e+00" IVar="-1" NCoef="0" cType="1" depth="6" nType="-99" pos="s" purity="0.0e+00" res="-0.154011473" rms="0.0e+00" /><Node Cut="0.0e+00" IVar="-1" NCoef="0" cType="1" depth="6" nType="-99" pos="s" purity="0.0e+00" res="-0.0970501602" rms="0.0e+00" /><Node Cut="0.0e+00" IVar="-1" NCoef="0" cType="1" depth="6" nType="-99" pos="s" purity="0.0e+00" res="0.171846732" rms="0.0e+00" /><Node Cut="0.0e+00" IVar="-1" NCoef="0" cType="1" depth="6" nType="-99" pos="s" purity="0.0e+00" res="0.120407" rms="0.0e+00" /><Node Cut="0.0e+00" IVar="-1" NCoef="0" cType="1" depth="6" nType="-99" pos="s" purity="0.0e+00" res="-0.127908692" rms="0.0e+00" /><Node Cut="0.0e+00" IVar="-1" NCoef="0" cType="1" depth="6" nType="-99" pos="s" purity="0.0e+00" res="0.0814495832" rms="0.0e+00" /><Node Cut="0.0e+00" IVar="-1" NCoef="0" cType="1" depth="6" nType="-99" pos="s" purity="0.0e+00" res="0.167449757" rms="0.0e+00" /><Node Cut="0.0e+00" IVar="-1" NCoef="0" cType="1" depth="6" nType="-99" pos="s" purity="0.0e+00" res="-0.14186196" rms="0.0e+00" /><Node Cut="0.0e+00" IVar="-1" NCoef="0" cType="1" depth="6" nType="-99" pos="s" purity="0.0e+00" res="0.0592517555" rms="0.0e+00" /><Node Cut="0.0e+00" IVar="-1" NCoef="0" cType="1" depth="6" nType="-99" pos="s" purity="0.0e+00" res="-0.159028366" rms="0.0e+00" /><Node Cut="0.0e+00" IVar="-1" NCoef="0" cType="1" depth="6" nType="-99" pos="s" purity="0.0e+00" res="-0.0581531897" rms="0.0e+00" /><Node Cut="0.0e+00" IVar="-1" NCoef="0" cType="1" depth="6" nType="-99" pos="s" purity="0.0e+00" res="-0.108989798" rms="0.0e+00" /><Node Cut="0.0e+00" IVar="-1" NCoef="0" cType="1" depth="6" nType="-99" pos="s" purity="0.0e+00" res="0.103755079" rms="0.0e+00" /><Node Cut="0.0e+00" IVar="-1" NCoef="0" cType="1" depth="6" nType="-99" pos="s" purity="0.0e+00" res="-0.155291364" rms="0.0e+00" /><Node Cut="0.0e+00" IVar="-1" NCoef="0" cType="1" depth="6" nType="-99" pos="s" purity="0.0e+00" res="0.0430488922" rms="0.0e+00" /><Node Cut="0.0e+00" IVar="-1" NCoef="0" cType="1" depth="6" nType="-99" pos="s" purity="0.0e+00" res="-0.156536326" rms="0.0e+00" /><Node Cut="0.0e+00" IVar="-1" NCoef="0" cType="1" depth="6" nType="-99" pos="s" purity="0.0e+00" res="0.0803994685" rms="0.0e+00" /><Node Cut="0.0e+00" IVar="-1" NCoef="0" cType="1" depth="6" nType="-99" pos="s" purity="0.0e+00" res="0.00338996924" rms="0.0e+00" /><Node Cut="0.0e+00" IVar="-1" NCoef="0" cType="1" depth="6" nType="-99" pos="s" purity="0.0e+00" res="-0.145393878" rms="0.0e+00" /><Node Cut="0.0e+00" IVar="-1" NCoef="0" cType="1" depth="6" nType="-99" pos="s" purity="0.0e+00" res="-0.0396192744" rms="0.0e+00" /><Node Cut="0.0e+00" IVar="-1" NCoef="0" cType="1" depth="6" nType="-99" pos="s" purity="0.0e+00" res="0.125355586" rms="0.0e+00" /><Node Cut="0.0e+00" IVar="-1" NCoef="0" cType="1" depth="6" nType="-99" pos="s" purity="0.0e+00" res="-0.0698392689" rms="0.0e+00" /><Node Cut="0.0e+00" IVar="-1" NCoef="0" cType="1" depth="6" nType="-99" pos="s" purity="0.0e+00" res="0.163034752" rms="0.0e+00" /><Node Cut="0.0e+00" IVar="-1" NCoef="0" cType="1" depth="6" nType="-99" pos="s" purity="0.0e+00" res="0.139096901" rms="0.0e+00" /><Node Cut="0.0e+00" IVar="-1" NCoef="0" cType="1" depth="6" nType="-99" pos="s" purity="0.0e+00" res="-0.0251705404" rms="0.0e+00" /><Node Cut="0.0e+00" IVar="-1" NCoef="0" cType="1" depth="6" nType="-99" pos="s" purity="0.0e+00" res="0.00698267622" rms="0.0e+00" /><Node Cut="0.0e+00" IVar="-1" NCoef="0" cType="1" depth="6" nType="-99" pos="s" purity="0.0e+00" res="-0.15368709" rms="0.0e+00" /><Node Cut="0.0e+00" IVar="-1" NCoef="0" cType="1" depth="6" nType="-99" pos="s" purity="0.0e+00" res="0.0895443484" rms="0.0e+00" /><Node Cut="0.0e+00" IVar="-1" NCoef="0" cType="1" depth="6" nType="-99" pos="s" purity="0.0e+00" res="-0.12384335" rms="0.0e+00" /><Node Cut="0.0e+00" IVar="-1" NCoef="0" cType="1" depth="6" nType="-99" pos="s" purity="0.0e+00" res="0.144598529" rms="0.0e+00" /><Node Cut="0.0e+00" IVar="-1" NCoef="0" cType="1" depth="6" nType="-99" pos="s" purity="0.0e+00" res="-0.013619164" rms="0.0e+00" /><Node Cut="0.0e+00" IVar="-1" NCoef="0" cType="1" depth="6" nType="-99" pos="s" purity="0.0e+00" res="0.0337606333" rms="0.0e+00" /><Node Cut="0.0e+00" IVar="-1" NCoef="0" cType="1" depth="6" nType="-99" pos="s" purity="0.0e+00" res="-0.124215178" rms="0.0e+00" /><Node Cut="0.0e+00" IVar="-1" NCoef="0" cType="1" depth="6" nType="-99" pos="s" purity="0.0e+00" res="-0.0373266079" rms="0.0e+00" /><Node Cut="0.0e+00" IVar="-1" NCoef="0" cType="1" depth="6" nType="-99" pos="s" purity="0.0e+00" res="0.148337781" rms="0.0e+00" /><Node Cut="0.0e+00" IVar="-1" NCoef="0" cType="1" depth="6" nType="-99" pos="s" purity="0.0e+00" res="0.129994661" rms="0.0e+00" /><Node Cut="0.0e+00" IVar="-1" NCoef="0" cType="1" depth="6" nType="-99" pos="s" purity="0.0e+00" res="-0.0780020282" rms="0.0e+00" /><Node Cut="0.0e+00" IVar="-1" NCoef="0" cType="1" depth="6" nType="-99" pos="s" purity="0.0e+00" res="-0.0139235212" rms="0.0e+00" /><Node Cut="0.0e+00" IVar="-1" NCoef="0" cType="1" depth="6" nType="-99" pos="s" purity="0.0e+00" res="0.165412799" rms="0.0e+00" /></BinaryTree><BinaryTree boostWeight="1.0e+00" itree="3" type="DecisionTree"><Node Cut="0.0978284478" IVar="BToKEE_l1_pfmvaId" NCoef="0" cType="1" depth="0" nType="0" pos="s" purity="0.0e+00" res="0.0e+00" rms="0.0e+00"><Node Cut="8.70498657" IVar="BToKEE_l_xy_sig" NCoef="0" cType="1" depth="1" nType="0" pos="l" purity="0.0e+00" res="0.0e+00" rms="0.0e+00"><Node Cut="0.504538894" IVar="BToKEE_l2_pfmvaId" NCoef="0" cType="1" depth="2" nType="0" pos="l" purity="0.0e+00" res="0.0e+00" rms="0.0e+00"><Node Cut="5.51782227" IVar="BToKEE_l1_iso04" NCoef="0" cType="1" depth="3" nType="0" pos="l" purity="0.0e+00" res="0.0e+00" rms="0.0e+00"><Node Cut="0.505379796" IVar="BToKEE_k_ptN" NCoef="0" cType="1" depth="4" nType="0" pos="l" purity="0.0e+00" res="0.0e+00" rms="0.0e+00"><Node Cut="-0.0788084865" IVar="BToKEE_l2_pfmvaId" NCoef="0" cType="1" depth="5" nType="0" pos="l" purity="0.0e+00" res="0.0e+00" rms="0.0e+00" /><Node Cut="-1.55493212" IVar="BToKEE_l2_pfmvaId" NCoef="0" cType="1" depth="5" nType="0" pos="r" purity="0.0e+00" res="0.0e+00" rms="0.0e+00" /></Node><Node Cut="0.832209349" IVar="BToKEE_k_ptN" NCoef="0" cType="1" depth="4" nType="0" pos="r" purity="0.0e+00" res="0.0e+00" rms="0.0e+00"><Node Cut="3.36547852" IVar="BToKEE_l2_iso04" NCoef="0" cType="1" depth="5" nType="0" pos="l" purity="0.0e+00" res="0.0e+00" rms="0.0e+00" /><Node Cut="12.4152832" IVar="BToKEE_iso04" NCoef="0" cType="1" depth="5" nType="0" pos="r" purity="0.0e+00" res="0.0e+00" rms="0.0e+00" /></Node></Node><Node Cut="0.440680385" IVar="BToKEE_k_ptN" NCoef="0" cType="1" depth="3" nType="0" pos="r" purity="0.0e+00" res="0.0e+00" rms="0.0e+00"><Node Cut="-1.18117154" IVar="BToKEE_l1_pfmvaId" NCoef="0" cType="1" depth="4" nType="0" pos="l" purity="0.0e+00" res="0.0e+00" rms="0.0e+00"><Node Cut="1.77416992" IVar="BToKEE_l2_iso04" NCoef="0" cType="1" depth="5" nType="0" pos="l" purity="0.0e+00" res="0.0e+00" rms="0.0e+00" /><Node Cut="6.8684082" IVar="BToKEE_l2_iso04" NCoef="0" cType="1" depth="5" nType="0" pos="r" purity="0.0e+00" res="0.0e+00" rms="0.0e+00" /></Node><Node Cut="-3.27277875" IVar="BToKEE_l1_pfmvaId" NCoef="0" cType="1" depth="4" nType="0" pos="r" purity="0.0e+00" res="0.0e+00" rms="0.0e+00"><Node Cut="1.8515408" IVar="BToKEE_l2_pfmvaId" NCoef="0" cType="1" depth="5" nType="0" pos="l" purity="0.0e+00" res="0.0e+00" rms="0.0e+00" /><Node Cut="0.930403113" IVar="BToKEE_maxDR" NCoef="0" cType="1" depth="5" nType="0" pos="r" purity="0.0e+00" res="0.0e+00" rms="0.0e+00" /></Node></Node></Node><Node Cut="0.338324249" IVar="BToKEE_k_ptN" NCoef="0" cType="1" depth="2" nType="0" pos="r" purity="0.0e+00" res="0.0e+00" rms="0.0e+00"><Node Cut="6.03393555" IVar="BToKEE_l2_iso04" NCoef="0" cType="1" depth="3" nType="0" pos="l" purity="0.0e+00" res="0.0e+00" rms="0.0e+00"><Node Cut="0.0368803851" IVar="BToKEE_svprob" NCoef="0" cType="1" depth="4" nType="0" pos="l" purity="0.0e+00" res="0.0e+00" rms="0.0e+00"><Node Cut="-0.406326354" IVar="BToKEE_l2_pfmvaId" NCoef="0" cType="1" depth="5" nType="0" pos="l" purity="0.0e+00" res="0.0e+00" rms="0.0e+00" /><Node Cut="0.98120904" IVar="BToKEE_cos2D" NCoef="0" cType="1" depth="5" nType="0" pos="r" purity="0.0e+00" res="0.0e+00" rms="0.0e+00" /></Node><Node Cut="-0.227380529" IVar="BToKEE_l2_pfmvaId" NCoef="0" cType="1" depth="4" nType="0" pos="r" purity="0.0e+00" res="0.0e+00" rms="0.0e+00"><Node Cut="6.52001953" IVar="BToKEE_l1_iso04" NCoef="0" cType="1" depth="5" nType="0" pos="l" purity="0.0e+00" res="0.0e+00" rms="0.0e+00" /><Node Cut="0.270732939" IVar="BToKEE_svprob" NCoef="0" cType="1" depth="5" nType="0" pos="r" purity="0.0e+00" res="0.0e+00" rms="0.0e+00" /></Node></Node><Node Cut="0.996317387" IVar="BToKEE_cos2D" NCoef="0" cType="1" depth="3" nType="0" pos="r" purity="0.0e+00" res="0.0e+00" rms="0.0e+00"><Node Cut="7.30322266" IVar="BToKEE_l1_iso04" NCoef="0" cType="1" depth="4" nType="0" pos="l" purity="0.0e+00" res="0.0e+00" rms="0.0e+00"><Node Cut="5.18408203" IVar="BToKEE_l2_iso04" NCoef="0" cType="1" depth="5" nType="0" pos="r" purity="0.0e+00" res="0.0e+00" rms="0.0e+00" /></Node><Node Cut="-2.61633921" IVar="BToKEE_l1_pfmvaId" NCoef="0" cType="1" depth="4" nType="0" pos="r" purity="0.0e+00" res="0.0e+00" rms="0.0e+00"><Node Cut="0.332116693" IVar="BToKEE_l2_pfmvaId" NCoef="0" cType="1" depth="5" nType="0" pos="l" purity="0.0e+00" res="0.0e+00" rms="0.0e+00" /><Node Cut="0.00663574087" IVar="BToKEE_svprob" NCoef="0" cType="1" depth="5" nType="0" pos="r" purity="0.0e+00" res="0.0e+00" rms="0.0e+00" /></Node></Node></Node></Node><Node Cut="0.994351387" IVar="BToKEE_cos2D" NCoef="0" cType="1" depth="1" nType="0" pos="r" purity="0.0e+00" res="0.0e+00" rms="0.0e+00"><Node Cut="7.39086914" IVar="BToKEE_l1_iso04" NCoef="0" cType="1" depth="2" nType="0" pos="l" purity="0.0e+00" res="0.0e+00" rms="0.0e+00"><Node Cut="0.901358008" IVar="BToKEE_cos2D" NCoef="0" cType="1" depth="3" nType="0" pos="l" purity="0.0e+00" res="0.0e+00" rms="0.0e+00"><Node Cut="1.21632481" IVar="BToKEE_maxDR" NCoef="0" cType="1" depth="4" nType="0" pos="l" purity="0.0e+00" res="0.0e+00" rms="0.0e+00"><Node Cut="14.1899414" IVar="BToKEE_k_iso04" NCoef="0" cType="1" depth="5" nType="0" pos="l" purity="0.0e+00" res="0.0e+00" rms="0.0e+00" /><Node Cut="1.42086756" IVar="BToKEE_l2_pfmvaId" NCoef="0" cType="1" depth="5" nType="0" pos="r" purity="0.0e+00" res="0.0e+00" rms="0.0e+00" /></Node><Node Cut="-2.15342331" IVar="BToKEE_l2_pfmvaId" NCoef="0" cType="1" depth="4" nType="0" pos="r" purity="0.0e+00" res="0.0e+00" rms="0.0e+00"><Node Cut="1.85784578" IVar="BToKEE_l1_pfmvaId" NCoef="0" cType="1" depth="5" nType="0" pos="l" purity="0.0e+00" res="0.0e+00" rms="0.0e+00" /><Node Cut="0.0135268271" IVar="BToKEE_svprob" NCoef="0" cType="1" depth="5" nType="0" pos="r" purity="0.0e+00" res="0.0e+00" rms="0.0e+00" /></Node></Node><Node Cut="0.517860889" IVar="BToKEE_k_ptN" NCoef="0" cType="1" depth="3" nType="0" pos="r" purity="0.0e+00" res="0.0e+00" rms="0.0e+00"><Node Cut="1.18412256" IVar="BToKEE_l2_pfmvaId" NCoef="0" cType="1" depth="4" nType="0" pos="l" purity="0.0e+00" res="0.0e+00" rms="0.0e+00"><Node Cut="3.98266602" IVar="BToKEE_l2_iso04" NCoef="0" cType="1" depth="5" nType="0" pos="l" purity="0.0e+00" res="0.0e+00" rms="0.0e+00" /><Node Cut="0.0750249475" IVar="BToKEE_svprob" NCoef="0" cType="1" depth="5" nType="0" pos="r" purity="0.0e+00" res="0.0e+00" rms="0.0e+00" /></Node><Node Cut="-0.358180285" IVar="BToKEE_l2_pfmvaId" NCoef="0" cType="1" depth="4" nType="0" pos="r" purity="0.0e+00" res="0.0e+00" rms="0.0e+00"><Node Cut="11.7961426" IVar="BToKEE_k_iso04" NCoef="0" cType="1" depth="5" nType="0" pos="l" purity="0.0e+00" res="0.0e+00" rms="0.0e+00" /><Node Cut="0.00698606484" IVar="BToKEE_svprob" NCoef="0" cType="1" depth="5" nType="0" pos="r" purity="0.0e+00" res="0.0e+00" rms="0.0e+00" /></Node></Node></Node><Node Cut="0.22366941" IVar="BToKEE_k_ptN" NCoef="0" cType="1" depth="2" nType="0" pos="r" purity="0.0e+00" res="0.0e+00" rms="0.0e+00"><Node Cut="-0.607647181" IVar="BToKEE_l2_pfmvaId" NCoef="0" cType="1" depth="3" nType="0" pos="l" purity="0.0e+00" res="0.0e+00" rms="0.0e+00"><Node Cut="-3.85839844" IVar="BToKEE_k_dxySig" NCoef="0" cType="1" depth="4" nType="0" pos="l" purity="0.0e+00" res="0.0e+00" rms="0.0e+00"><Node Cut="0.317400247" IVar="BToKEE_minDR" NCoef="0" cType="1" depth="5" nType="0" pos="l" purity="0.0e+00" res="0.0e+00" rms="0.0e+00" /><Node Cut="3.28222656" IVar="BToKEE_k_dxySig" NCoef="0" cType="1" depth="5" nType="0" pos="r" purity="0.0e+00" res="0.0e+00" rms="0.0e+00" /></Node><Node Cut="3.5092783" IVar="BToKEE_l_xy_sig" NCoef="0" cType="1" depth="4" nType="0" pos="r" purity="0.0e+00" res="0.0e+00" rms="0.0e+00"><Node Cut="6.61547852" IVar="BToKEE_l1_iso04" NCoef="0" cType="1" depth="5" nType="0" pos="l" purity="0.0e+00" res="0.0e+00" rms="0.0e+00" /><Node Cut="0.0358480141" IVar="BToKEE_svprob" NCoef="0" cType="1" depth="5" nType="0" pos="r" purity="0.0e+00" res="0.0e+00" rms="0.0e+00" /></Node></Node><Node Cut="-1.3949039" IVar="BToKEE_l2_pfmvaId" NCoef="0" cType="1" depth="3" nType="0" pos="r" purity="0.0e+00" res="0.0e+00" rms="0.0e+00"><Node Cut="3.72426558" IVar="BToKEE_l_xy_sig" NCoef="0" cType="1" depth="4" nType="0" pos="l" purity="0.0e+00" res="0.0e+00" rms="0.0e+00"><Node Cut="1.82565558" IVar="BToKEE_k_ptN" NCoef="0" cType="1" depth="5" nType="0" pos="l" purity="0.0e+00" res="0.0e+00" rms="0.0e+00" /><Node Cut="0.321959376" IVar="BToKEE_k_ptN" NCoef="0" cType="1" depth="5" nType="0" pos="r" purity="0.0e+00" res="0.0e+00" rms="0.0e+00" /></Node><Node Cut="2.40690088" IVar="BToKEE_l_xy_sig" NCoef="0" cType="1" depth="4" nType="0" pos="r" purity="0.0e+00" res="0.0e+00" rms="0.0e+00"><Node Cut="0.495643944" IVar="BToKEE_k_ptN" NCoef="0" cType="1" depth="5" nType="0" pos="l" purity="0.0e+00" res="0.0e+00" rms="0.0e+00" /><Node Cut="0.0479289293" IVar="BToKEE_minDR" NCoef="0" cType="1" depth="5" nType="0" pos="r" purity="0.0e+00" res="0.0e+00" rms="0.0e+00" /></Node></Node></Node></Node></Node><Node Cut="0.0e+00" IVar="-1" NCoef="0" cType="1" depth="6" nType="-99" pos="s" purity="0.0e+00" res="-0.146301985" rms="0.0e+00" /><Node Cut="0.0e+00" IVar="-1" NCoef="0" cType="1" depth="6" nType="-99" pos="s" purity="0.0e+00" res="-0.0221250784" rms="0.0e+00" /><Node Cut="0.0e+00" IVar="-1" NCoef="0" cType="1" depth="6" nType="-99" pos="s" purity="0.0e+00" res="-0.0912565216" rms="0.0e+00" /><Node Cut="0.0e+00" IVar="-1" NCoef="0" cType="1" depth="6" nType="-99" pos="s" purity="0.0e+00" res="0.139514953" rms="0.0e+00" /><Node Cut="0.0e+00" IVar="-1" NCoef="0" cType="1" depth="6" nType="-99" pos="s" purity="0.0e+00" res="-0.125434756" rms="0.0e+00" /><Node Cut="0.0e+00" IVar="-1" NCoef="0" cType="1" depth="6" nType="-99" pos="s" purity="0.0e+00" res="-0.156821802" rms="0.0e+00" /><Node Cut="0.0e+00" IVar="-1" NCoef="0" cType="1" depth="6" nType="-99" pos="s" purity="0.0e+00" res="0.0204775315" rms="0.0e+00" /><Node Cut="0.0e+00" IVar="-1" NCoef="0" cType="1" depth="6" nType="-99" pos="s" purity="0.0e+00" res="-0.143476352" rms="0.0e+00" /><Node Cut="0.0e+00" IVar="-1" NCoef="0" cType="1" depth="6" nType="-99" pos="s" purity="0.0e+00" res="0.0152246552" rms="0.0e+00" /><Node Cut="0.0e+00" IVar="-1" NCoef="0" cType="1" depth="6" nType="-99" pos="s" purity="0.0e+00" res="-0.153580591" rms="0.0e+00" /><Node Cut="0.0e+00" IVar="-1" NCoef="0" cType="1" depth="6" nType="-99" pos="s" purity="0.0e+00" res="0.0780378431" rms="0.0e+00" /><Node Cut="0.0e+00" IVar="-1" NCoef="0" cType="1" depth="6" nType="-99" pos="s" purity="0.0e+00" res="-0.0993001387" rms="0.0e+00" /><Node Cut="0.0e+00" IVar="-1" NCoef="0" cType="1" depth="6" nType="-99" pos="s" purity="0.0e+00" res="-0.144174486" rms="0.0e+00" /><Node Cut="0.0e+00" IVar="-1" NCoef="0" cType="1" depth="6" nType="-99" pos="s" purity="0.0e+00" res="0.0188566037" rms="0.0e+00" /><Node Cut="0.0e+00" IVar="-1" NCoef="0" cType="1" depth="6" nType="-99" pos="s" purity="0.0e+00" res="0.151386887" rms="0.0e+00" /><Node Cut="0.0e+00" IVar="-1" NCoef="0" cType="1" depth="6" nType="-99" pos="s" purity="0.0e+00" res="0.00145737641" rms="0.0e+00" /><Node Cut="0.0e+00" IVar="-1" NCoef="0" cType="1" depth="6" nType="-99" pos="s" purity="0.0e+00" res="-0.141184077" rms="0.0e+00" /><Node Cut="0.0e+00" IVar="-1" NCoef="0" cType="1" depth="6" nType="-99" pos="s" purity="0.0e+00" res="-0.0132837314" rms="0.0e+00" /><Node Cut="0.0e+00" IVar="-1" NCoef="0" cType="1" depth="6" nType="-99" pos="s" purity="0.0e+00" res="-0.0664137229" rms="0.0e+00" /><Node Cut="0.0e+00" IVar="-1" NCoef="0" cType="1" depth="6" nType="-99" pos="s" purity="0.0e+00" res="0.155561715" rms="0.0e+00" /><Node Cut="0.0e+00" IVar="-1" NCoef="0" cType="1" depth="6" nType="-99" pos="s" purity="0.0e+00" res="-0.10235776" rms="0.0e+00" /><Node Cut="0.0e+00" IVar="-1" NCoef="0" cType="1" depth="6" nType="-99" pos="s" purity="0.0e+00" res="-0.156993374" rms="0.0e+00" /><Node Cut="0.0e+00" IVar="-1" NCoef="0" cType="1" depth="6" nType="-99" pos="s" purity="0.0e+00" res="-0.139685974" rms="0.0e+00" /><Node Cut="0.0e+00" IVar="-1" NCoef="0" cType="1" depth="6" nType="-99" pos="s" purity="0.0e+00" res="0.0540036745" rms="0.0e+00" /><Node Cut="0.0e+00" IVar="-1" NCoef="0" cType="1" depth="5" nType="-99" pos="s" purity="0.0e+00" res="0.0816903561" rms="0.0e+00" /><Node Cut="0.0e+00" IVar="-1" NCoef="0" cType="1" depth="6" nType="-99" pos="s" purity="0.0e+00" res="-0.00511652231" rms="0.0e+00" /><Node Cut="0.0e+00" IVar="-1" NCoef="0" cType="1" depth="6" nType="-99" pos="s" purity="0.0e+00" res="-0.146809965" rms="0.0e+00" /><Node Cut="0.0e+00" IVar="-1" NCoef="0" cType="1" depth="6" nType="-99" pos="s" purity="0.0e+00" res="-0.070009768" rms="0.0e+00" /><Node Cut="0.0e+00" IVar="-1" NCoef="0" cType="1" depth="6" nType="-99" pos="s" purity="0.0e+00" res="0.133945018" rms="0.0e+00" /><Node Cut="0.0e+00" IVar="-1" NCoef="0" cType="1" depth="6" nType="-99" pos="s" purity="0.0e+00" res="-0.0217584092" rms="0.0e+00" /><Node Cut="0.0e+00" IVar="-1" NCoef="0" cType="1" depth="6" nType="-99" pos="s" purity="0.0e+00" res="0.156663388" rms="0.0e+00" /><Node Cut="0.0e+00" IVar="-1" NCoef="0" cType="1" depth="6" nType="-99" pos="s" purity="0.0e+00" res="0.119896293" rms="0.0e+00" /><Node Cut="0.0e+00" IVar="-1" NCoef="0" cType="1" depth="6" nType="-99" pos="s" purity="0.0e+00" res="-0.121381223" rms="0.0e+00" /><Node Cut="0.0e+00" IVar="-1" NCoef="0" cType="1" depth="6" nType="-99" pos="s" purity="0.0e+00" res="-0.126791045" rms="0.0e+00" /><Node Cut="0.0e+00" IVar="-1" NCoef="0" cType="1" depth="6" nType="-99" pos="s" purity="0.0e+00" res="0.0271829199" rms="0.0e+00" /><Node Cut="0.0e+00" IVar="-1" NCoef="0" cType="1" depth="6" nType="-99" pos="s" purity="0.0e+00" res="-0.147522792" rms="0.0e+00" /><Node Cut="0.0e+00" IVar="-1" NCoef="0" cType="1" depth="6" nType="-99" pos="s" purity="0.0e+00" res="0.0820858553" rms="0.0e+00" /><Node Cut="0.0e+00" IVar="-1" NCoef="0" cType="1" depth="6" nType="-99" pos="s" purity="0.0e+00" res="-0.0257257465" rms="0.0e+00" /><Node Cut="0.0e+00" IVar="-1" NCoef="0" cType="1" depth="6" nType="-99" pos="s" purity="0.0e+00" res="0.131704554" rms="0.0e+00" /><Node Cut="0.0e+00" IVar="-1" NCoef="0" cType="1" depth="6" nType="-99" pos="s" purity="0.0e+00" res="-0.057576526" rms="0.0e+00" /><Node Cut="0.0e+00" IVar="-1" NCoef="0" cType="1" depth="6" nType="-99" pos="s" purity="0.0e+00" res="-0.148030624" rms="0.0e+00" /><Node Cut="0.0e+00" IVar="-1" NCoef="0" cType="1" depth="6" nType="-99" pos="s" purity="0.0e+00" res="-0.15569137" rms="0.0e+00" /><Node Cut="0.0e+00" IVar="-1" NCoef="0" cType="1" depth="6" nType="-99" pos="s" purity="0.0e+00" res="0.0318981074" rms="0.0e+00" /><Node Cut="0.0e+00" IVar="-1" NCoef="0" cType="1" depth="6" nType="-99" pos="s" purity="0.0e+00" res="0.00534879556" rms="0.0e+00" /><Node Cut="0.0e+00" IVar="-1" NCoef="0" cType="1" depth="6" nType="-99" pos="s" purity="0.0e+00" res="-0.135926038" rms="0.0e+00" /><Node Cut="0.0e+00" IVar="-1" NCoef="0" cType="1" depth="6" nType="-99" pos="s" purity="0.0e+00" res="-0.0870923325" rms="0.0e+00" /><Node Cut="0.0e+00" IVar="-1" NCoef="0" cType="1" depth="6" nType="-99" pos="s" purity="0.0e+00" res="0.124518216" rms="0.0e+00" /><Node Cut="0.0e+00" IVar="-1" NCoef="0" cType="1" depth="6" nType="-99" pos="s" purity="0.0e+00" res="-0.0256210025" rms="0.0e+00" /><Node Cut="0.0e+00" IVar="-1" NCoef="0" cType="1" depth="6" nType="-99" pos="s" purity="0.0e+00" res="0.132416353" rms="0.0e+00" /><Node Cut="0.0e+00" IVar="-1" NCoef="0" cType="1" depth="6" nType="-99" pos="s" purity="0.0e+00" res="-0.1349307" rms="0.0e+00" /><Node Cut="0.0e+00" IVar="-1" NCoef="0" cType="1" depth="6" nType="-99" pos="s" purity="0.0e+00" res="0.0528534167" rms="0.0e+00" /><Node Cut="0.0e+00" IVar="-1" NCoef="0" cType="1" depth="6" nType="-99" pos="s" purity="0.0e+00" res="0.0995038748" rms="0.0e+00" /><Node Cut="0.0e+00" IVar="-1" NCoef="0" cType="1" depth="6" nType="-99" pos="s" purity="0.0e+00" res="-0.0969954804" rms="0.0e+00" /><Node Cut="0.0e+00" IVar="-1" NCoef="0" cType="1" depth="6" nType="-99" pos="s" purity="0.0e+00" res="0.00365354237" rms="0.0e+00" /><Node Cut="0.0e+00" IVar="-1" NCoef="0" cType="1" depth="6" nType="-99" pos="s" purity="0.0e+00" res="0.138071671" rms="0.0e+00" /><Node Cut="0.0e+00" IVar="-1" NCoef="0" cType="1" depth="6" nType="-99" pos="s" purity="0.0e+00" res="-0.110705473" rms="0.0e+00" /><Node Cut="0.0e+00" IVar="-1" NCoef="0" cType="1" depth="6" nType="-99" pos="s" purity="0.0e+00" res="0.119903974" rms="0.0e+00" /><Node Cut="0.0e+00" IVar="-1" NCoef="0" cType="1" depth="6" nType="-99" pos="s" purity="0.0e+00" res="-0.0165842324" rms="0.0e+00" /><Node Cut="0.0e+00" IVar="-1" NCoef="0" cType="1" depth="6" nType="-99" pos="s" purity="0.0e+00" res="0.145395428" rms="0.0e+00" /><Node Cut="0.0e+00" IVar="-1" NCoef="0" cType="1" depth="6" nType="-99" pos="s" purity="0.0e+00" res="0.000862034329" rms="0.0e+00" /><Node Cut="0.0e+00" IVar="-1" NCoef="0" cType="1" depth="6" nType="-99" pos="s" purity="0.0e+00" res="0.144406661" rms="0.0e+00" /><Node Cut="0.0e+00" IVar="-1" NCoef="0" cType="1" depth="6" nType="-99" pos="s" purity="0.0e+00" res="0.00663201278" rms="0.0e+00" /><Node Cut="0.0e+00" IVar="-1" NCoef="0" cType="1" depth="6" nType="-99" pos="s" purity="0.0e+00" res="0.155462906" rms="0.0e+00" /></BinaryTree><BinaryTree boostWeight="1.0e+00" itree="4" type="DecisionTree"><Node Cut="0.0809595138" IVar="BToKEE_l1_pfmvaId" NCoef="0" cType="1" depth="0" nType="0" pos="s" purity="0.0e+00" res="0.0e+00" rms="0.0e+00"><Node Cut="0.999426842" IVar="BToKEE_cos2D" NCoef="0" cType="1" depth="1" nType="0" pos="l" purity="0.0e+00" res="0.0e+00" rms="0.0e+00"><Node Cut="5.18701172" IVar="BToKEE_l2_iso04" NCoef="0" cType="1" depth="2" nType="0" pos="l" purity="0.0e+00" res="0.0e+00" rms="0.0e+00"><Node Cut="-1.27425098" IVar="BToKEE_l1_pfmvaId" NCoef="0" cType="1" depth="3" nType="0" pos="l" purity="0.0e+00" res="0.0e+00" rms="0.0e+00"><Node Cut="0.698280096" IVar="BToKEE_k_ptN" NCoef="0" cType="1" depth="4" nType="0" pos="l" purity="0.0e+00" res="0.0e+00" rms="0.0e+00"><Node Cut="0.998547673" IVar="BToKEE_cos2D" NCoef="0" cType="1" depth="5" nType="0" pos="l" purity="0.0e+00" res="0.0e+00" rms="0.0e+00" /><Node Cut="19.1018066" IVar="BToKEE_k_iso04" NCoef="0" cType="1" depth="5" nType="0" pos="r" purity="0.0e+00" res="0.0e+00" rms="0.0e+00" /></Node><Node Cut="-1.32849479" IVar="BToKEE_l2_pfmvaId" NCoef="0" cType="1" depth="4" nType="0" pos="r" purity="0.0e+00" res="0.0e+00" rms="0.0e+00"><Node Cut="6.93673515" IVar="BToKEE_l_xy_sig" NCoef="0" cType="1" depth="5" nType="0" pos="l" purity="0.0e+00" res="0.0e+00" rms="0.0e+00" /><Node Cut="1.60744166" IVar="BToKEE_l_xy_sig" NCoef="0" cType="1" depth="5" nType="0" pos="r" purity="0.0e+00" res="0.0e+00" rms="0.0e+00" /></Node></Node><Node Cut="0.367138982" IVar="BToKEE_l2_pfmvaId" NCoef="0" cType="1" depth="3" nType="0" pos="r" purity="0.0e+00" res="0.0e+00" rms="0.0e+00"><Node Cut="5.31054688" IVar="BToKEE_k_dxySig" NCoef="0" cType="1" depth="4" nType="0" pos="l" purity="0.0e+00" res="0.0e+00" rms="0.0e+00"><Node Cut="-1.02348566" IVar="BToKEE_l1_pfmvaId" NCoef="0" cType="1" depth="5" nType="0" pos="l" purity="0.0e+00" res="0.0e+00" rms="0.0e+00" /><Node Cut="0.997223854" IVar="BToKEE_cos2D" NCoef="0" cType="1" depth="5" nType="0" pos="r" purity="0.0e+00" res="0.0e+00" rms="0.0e+00" /></Node><Node Cut="0.995411873" IVar="BToKEE_cos2D" NCoef="0" cType="1" depth="4" nType="0" pos="r" purity="0.0e+00" res="0.0e+00" rms="0.0e+00"><Node Cut="3.42260742" IVar="BToKEE_l1_iso04" NCoef="0" cType="1" depth="5" nType="0" pos="l" purity="0.0e+00" res="0.0e+00" rms="0.0e+00" /><Node Cut="-1.66182208" IVar="BToKEE_l1_pfmvaId" NCoef="0" cType="1" depth="5" nType="0" pos="r" purity="0.0e+00" res="0.0e+00" rms="0.0e+00" /></Node></Node></Node><Node Cut="-1.88453436" IVar="BToKEE_l1_pfmvaId" NCoef="0" cType="1" depth="2" nType="0" pos="r" purity="0.0e+00" res="0.0e+00" rms="0.0e+00"><Node Cut="0.932868958" IVar="BToKEE_k_ptN" NCoef="0" cType="1" depth="3" nType="0" pos="l" purity="0.0e+00" res="0.0e+00" rms="0.0e+00"><Node Cut="1.83217955" IVar="BToKEE_l2_pfmvaId" NCoef="0" cType="1" depth="4" nType="0" pos="l" purity="0.0e+00" res="0.0e+00" rms="0.0e+00"><Node Cut="-5.46438694" IVar="BToKEE_l2_dxySig" NCoef="0" cType="1" depth="5" nType="0" pos="l" purity="0.0e+00" res="0.0e+00" rms="0.0e+00" /><Node Cut="6.26629782" IVar="BToKEE_l_xy_sig" NCoef="0" cType="1" depth="5" nType="0" pos="r" purity="0.0e+00" res="0.0e+00" rms="0.0e+00" /></Node><Node Cut="6.1287775" IVar="BToKEE_l_xy_sig" NCoef="0" cType="1" depth="4" nType="0" pos="r" purity="0.0e+00" res="0.0e+00" rms="0.0e+00"><Node Cut="26.013916" IVar="BToKEE_k_iso04" NCoef="0" cType="1" depth="5" nType="0" pos="l" purity="0.0e+00" res="0.0e+00" rms="0.0e+00" /><Node Cut="0.0305419881" IVar="BToKEE_svprob" NCoef="0" cType="1" depth="5" nType="0" pos="r" purity="0.0e+00" res="0.0e+00" rms="0.0e+00" /></Node></Node><Node Cut="0.310191512" IVar="BToKEE_k_ptN" NCoef="0" cType="1" depth="3" nType="0" pos="r" purity="0.0e+00" res="0.0e+00" rms="0.0e+00"><Node Cut="-1.11607027" IVar="BToKEE_l2_pfmvaId" NCoef="0" cType="1" depth="4" nType="0" pos="l" purity="0.0e+00" res="0.0e+00" rms="0.0e+00"><Node Cut="-3.63078213" IVar="BToKEE_l2_dxySig" NCoef="0" cType="1" depth="5" nType="0" pos="l" purity="0.0e+00" res="0.0e+00" rms="0.0e+00" /><Node Cut="7.15452766" IVar="BToKEE_l_xy_sig" NCoef="0" cType="1" depth="5" nType="0" pos="r" purity="0.0e+00" res="0.0e+00" rms="0.0e+00" /></Node><Node Cut="2.84191751" IVar="BToKEE_l_xy_sig" NCoef="0" cType="1" depth="4" nType="0" pos="r" purity="0.0e+00" res="0.0e+00" rms="0.0e+00"><Node Cut="7.45727539" IVar="BToKEE_iso04" NCoef="0" cType="1" depth="5" nType="0" pos="l" purity="0.0e+00" res="0.0e+00" rms="0.0e+00" /><Node Cut="0.0101858135" IVar="BToKEE_svprob" NCoef="0" cType="1" depth="5" nType="0" pos="r" purity="0.0e+00" res="0.0e+00" rms="0.0e+00" /></Node></Node></Node></Node><Node Cut="0.992209315" IVar="BToKEE_cos2D" NCoef="0" cType="1" depth="1" nType="0" pos="r" purity="0.0e+00" res="0.0e+00" rms="0.0e+00"><Node Cut="7.38012695" IVar="BToKEE_l1_iso04" NCoef="0" cType="1" depth="2" nType="0" pos="l" purity="0.0e+00" res="0.0e+00" rms="0.0e+00"><Node Cut="1.21263087" IVar="BToKEE_maxDR" NCoef="0" cType="1" depth="3" nType="0" pos="l" purity="0.0e+00" res="0.0e+00" rms="0.0e+00"><Node Cut="18.067627" IVar="BToKEE_k_iso04" NCoef="0" cType="1" depth="4" nType="0" pos="l" purity="0.0e+00" res="0.0e+00" rms="0.0e+00"><Node Cut="14.2666016" IVar="BToKEE_l2_iso04" NCoef="0" cType="1" depth="5" nType="0" pos="l" purity="0.0e+00" res="0.0e+00" rms="0.0e+00" /><Node Cut="0.973836124" IVar="BToKEE_cos2D" NCoef="0" cType="1" depth="5" nType="0" pos="r" purity="0.0e+00" res="0.0e+00" rms="0.0e+00" /></Node><Node Cut="0.893563271" IVar="BToKEE_cos2D" NCoef="0" cType="1" depth="4" nType="0" pos="r" purity="0.0e+00" res="0.0e+00" rms="0.0e+00"><Node Cut="1.71908855" IVar="BToKEE_ptN" NCoef="0" cType="1" depth="5" nType="0" pos="l" purity="0.0e+00" res="0.0e+00" rms="0.0e+00" /><Node Cut="0.514323592" IVar="BToKEE_minDR" NCoef="0" cType="1" depth="5" nType="0" pos="r" purity="0.0e+00" res="0.0e+00" rms="0.0e+00" /></Node></Node><Node Cut="0.436851114" IVar="BToKEE_k_ptN" NCoef="0" cType="1" depth="3" nType="0" pos="r" purity="0.0e+00" res="0.0e+00" rms="0.0e+00"><Node Cut="2.13017225" IVar="BToKEE_l2_pfmvaId" NCoef="0" cType="1" depth="4" nType="0" pos="l" purity="0.0e+00" res="0.0e+00" rms="0.0e+00"><Node Cut="4.05957031" IVar="BToKEE_l2_iso04" NCoef="0" cType="1" depth="5" nType="0" pos="l" purity="0.0e+00" res="0.0e+00" rms="0.0e+00" /></Node><Node Cut="-0.513457537" IVar="BToKEE_l2_pfmvaId" NCoef="0" cType="1" depth="4" nType="0" pos="r" purity="0.0e+00" res="0.0e+00" rms="0.0e+00"><Node Cut="10.4592285" IVar="BToKEE_l1_iso04" NCoef="0" cType="1" depth="5" nType="0" pos="l" purity="0.0e+00" res="0.0e+00" rms="0.0e+00" /><Node Cut="0.129532188" IVar="BToKEE_minDR" NCoef="0" cType="1" depth="5" nType="0" pos="r" purity="0.0e+00" res="0.0e+00" rms="0.0e+00" /></Node></Node></Node><Node Cut="0.22366941" IVar="BToKEE_k_ptN" NCoef="0" cType="1" depth="2" nType="0" pos="r" purity="0.0e+00" res="0.0e+00" rms="0.0e+00"><Node Cut="12.5720215" IVar="BToKEE_l2_iso04" NCoef="0" cType="1" depth="3" nType="0" pos="l" purity="0.0e+00" res="0.0e+00" rms="0.0e+00"><Node Cut="-0.755178928" IVar="BToKEE_l2_pfmvaId" NCoef="0" cType="1" depth="4" nType="0" pos="l" purity="0.0e+00" res="0.0e+00" rms="0.0e+00"><Node Cut="2.19296074" IVar="BToKEE_l1_pfmvaId" NCoef="0" cType="1" depth="5" nType="0" pos="l" purity="0.0e+00" res="0.0e+00" rms="0.0e+00" /><Node Cut="0.128525257" IVar="BToKEE_k_ptN" NCoef="0" cType="1" depth="5" nType="0" pos="r" purity="0.0e+00" res="0.0e+00" rms="0.0e+00" /></Node><Node Cut="0.515011668" IVar="BToKEE_l2_pfmvaId" NCoef="0" cType="1" depth="4" nType="0" pos="r" purity="0.0e+00" res="0.0e+00" rms="0.0e+00"><Node Cut="-5.21581936" IVar="BToKEE_l2_dxySig" NCoef="0" cType="1" depth="5" nType="0" pos="l" purity="0.0e+00" res="0.0e+00" rms="0.0e+00" /><Node Cut="1.39677095" IVar="BToKEE_l1_ptN" NCoef="0" cType="1" depth="5" nType="0" pos="r" purity="0.0e+00" res="0.0e+00" rms="0.0e+00" /></Node></Node><Node Cut="-1.39599729" IVar="BToKEE_l2_pfmvaId" NCoef="0" cType="1" depth="3" nType="0" pos="r" purity="0.0e+00" res="0.0e+00" rms="0.0e+00"><Node Cut="3.72426558" IVar="BToKEE_l_xy_sig" NCoef="0" cType="1" depth="4" nType="0" pos="l" purity="0.0e+00" res="0.0e+00" rms="0.0e+00"><Node Cut="1.04210043" IVar="BToKEE_k_ptN" NCoef="0" cType="1" depth="5" nType="0" pos="l" purity="0.0e+00" res="0.0e+00" rms="0.0e+00" /><Node Cut="0.335891783" IVar="BToKEE_k_ptN" NCoef="0" cType="1" depth="5" nType="0" pos="r" purity="0.0e+00" res="0.0e+00" rms="0.0e+00" /></Node><Node Cut="2.44026017" IVar="BToKEE_l_xy_sig" NCoef="0" cType="1" depth="4" nType="0" pos="r" purity="0.0e+00" res="0.0e+00" rms="0.0e+00"><Node Cut="20.6728516" IVar="BToKEE_l2_iso04" NCoef="0" cType="1" depth="5" nType="0" pos="l" purity="0.0e+00" res="0.0e+00" rms="0.0e+00" /><Node Cut="9.80156898" IVar="BToKEE_ptImb" NCoef="0" cType="1" depth="5" nType="0" pos="r" purity="0.0e+00" res="0.0e+00" rms="0.0e+00" /></Node></Node></Node></Node></Node><Node Cut="0.0e+00" IVar="-1" NCoef="0" cType="1" depth="6" nType="-99" pos="s" purity="0.0e+00" res="-0.138371512" rms="0.0e+00" /><Node Cut="0.0e+00" IVar="-1" NCoef="0" cType="1" depth="6" nType="-99" pos="s" purity="0.0e+00" res="0.0105858324" rms="0.0e+00" /><Node Cut="0.0e+00" IVar="-1" NCoef="0" cType="1" depth="6" nType="-99" pos="s" purity="0.0e+00" res="0.100398712" rms="0.0e+00" /><Node Cut="0.0e+00" IVar="-1" NCoef="0" cType="1" depth="6" nType="-99" pos="s" purity="0.0e+00" res="-0.102890193" rms="0.0e+00" /><Node Cut="0.0e+00" IVar="-1" NCoef="0" cType="1" depth="6" nType="-99" pos="s" purity="0.0e+00" res="-0.129542693" rms="0.0e+00" /><Node Cut="0.0e+00" IVar="-1" NCoef="0" cType="1" depth="6" nType="-99" pos="s" purity="0.0e+00" res="0.0449941717" rms="0.0e+00" /><Node Cut="0.0e+00" IVar="-1" NCoef="0" cType="1" depth="6" nType="-99" pos="s" purity="0.0e+00" res="-0.0219592657" rms="0.0e+00" /><Node Cut="0.0e+00" IVar="-1" NCoef="0" cType="1" depth="6" nType="-99" pos="s" purity="0.0e+00" res="0.136225089" rms="0.0e+00" /><Node Cut="0.0e+00" IVar="-1" NCoef="0" cType="1" depth="6" nType="-99" pos="s" purity="0.0e+00" res="-0.149014667" rms="0.0e+00" /><Node Cut="0.0e+00" IVar="-1" NCoef="0" cType="1" depth="6" nType="-99" pos="s" purity="0.0e+00" res="-0.137187362" rms="0.0e+00" /><Node Cut="0.0e+00" IVar="-1" NCoef="0" cType="1" depth="6" nType="-99" pos="s" purity="0.0e+00" res="-0.129914641" rms="0.0e+00" /><Node Cut="0.0e+00" IVar="-1" NCoef="0" cType="1" depth="6" nType="-99" pos="s" purity="0.0e+00" res="0.0613954961" rms="0.0e+00" /><Node Cut="0.0e+00" IVar="-1" NCoef="0" cType="1" depth="6" nType="-99" pos="s" purity="0.0e+00" res="0.0373477153" rms="0.0e+00" /><Node Cut="0.0e+00" IVar="-1" NCoef="0" cType="1" depth="6" nType="-99" pos="s" purity="0.0e+00" res="-0.140213668" rms="0.0e+00" /><Node Cut="0.0e+00" IVar="-1" NCoef="0" cType="1" depth="6" nType="-99" pos="s" purity="0.0e+00" res="-0.105406992" rms="0.0e+00" /><Node Cut="0.0e+00" IVar="-1" NCoef="0" cType="1" depth="6" nType="-99" pos="s" purity="0.0e+00" res="0.068475984" rms="0.0e+00" /><Node Cut="0.0e+00" IVar="-1" NCoef="0" cType="1" depth="6" nType="-99" pos="s" purity="0.0e+00" res="0.0503197908" rms="0.0e+00" /><Node Cut="0.0e+00" IVar="-1" NCoef="0" cType="1" depth="6" nType="-99" pos="s" purity="0.0e+00" res="-0.14483887" rms="0.0e+00" /><Node Cut="0.0e+00" IVar="-1" NCoef="0" cType="1" depth="6" nType="-99" pos="s" purity="0.0e+00" res="-0.0455383323" rms="0.0e+00" /><Node Cut="0.0e+00" IVar="-1" NCoef="0" cType="1" depth="6" nType="-99" pos="s" purity="0.0e+00" res="0.111686669" rms="0.0e+00" /><Node Cut="0.0e+00" IVar="-1" NCoef="0" cType="1" depth="6" nType="-99" pos="s" purity="0.0e+00" res="0.0320698842" rms="0.0e+00" /><Node Cut="0.0e+00" IVar="-1" NCoef="0" cType="1" depth="6" nType="-99" pos="s" purity="0.0e+00" res="-0.138541445" rms="0.0e+00" /><Node Cut="0.0e+00" IVar="-1" NCoef="0" cType="1" depth="6" nType="-99" pos="s" purity="0.0e+00" res="-0.0324603841" rms="0.0e+00" /><Node Cut="0.0e+00" IVar="-1" NCoef="0" cType="1" depth="6" nType="-99" pos="s" purity="0.0e+00" res="0.142289564" rms="0.0e+00" /><Node Cut="0.0e+00" IVar="-1" NCoef="0" cType="1" depth="6" nType="-99" pos="s" purity="0.0e+00" res="-0.00987764914" rms="0.0e+00" /><Node Cut="0.0e+00" IVar="-1" NCoef="0" cType="1" depth="6" nType="-99" pos="s" purity="0.0e+00" res="-0.146425888" rms="0.0e+00" /><Node Cut="0.0e+00" IVar="-1" NCoef="0" cType="1" depth="6" nType="-99" pos="s" purity="0.0e+00" res="-0.0691783503" rms="0.0e+00" /><Node Cut="0.0e+00" IVar="-1" NCoef="0" cType="1" depth="6" nType="-99" pos="s" purity="0.0e+00" res="0.117176078" rms="0.0e+00" /><Node Cut="0.0e+00" IVar="-1" NCoef="0" cType="1" depth="6" nType="-99" pos="s" purity="0.0e+00" res="0.0906689465" rms="0.0e+00" /><Node Cut="0.0e+00" IVar="-1" NCoef="0" cType="1" depth="6" nType="-99" pos="s" purity="0.0e+00" res="-0.101818435" rms="0.0e+00" /><Node Cut="0.0e+00" IVar="-1" NCoef="0" cType="1" depth="6" nType="-99" pos="s" purity="0.0e+00" res="0.00377789442" rms="0.0e+00" /><Node Cut="0.0e+00" IVar="-1" NCoef="0" cType="1" depth="6" nType="-99" pos="s" purity="0.0e+00" res="0.146618471" rms="0.0e+00" /><Node Cut="0.0e+00" IVar="-1" NCoef="0" cType="1" depth="6" nType="-99" pos="s" purity="0.0e+00" res="0.145342499" rms="0.0e+00" /><Node Cut="0.0e+00" IVar="-1" NCoef="0" cType="1" depth="6" nType="-99" pos="s" purity="0.0e+00" res="0.00422201306" rms="0.0e+00" /><Node Cut="0.0e+00" IVar="-1" NCoef="0" cType="1" depth="6" nType="-99" pos="s" purity="0.0e+00" res="-0.131709322" rms="0.0e+00" /><Node Cut="0.0e+00" IVar="-1" NCoef="0" cType="1" depth="6" nType="-99" pos="s" purity="0.0e+00" res="0.0180768017" rms="0.0e+00" /><Node Cut="0.0e+00" IVar="-1" NCoef="0" cType="1" depth="6" nType="-99" pos="s" purity="0.0e+00" res="-0.128601879" rms="0.0e+00" /><Node Cut="0.0e+00" IVar="-1" NCoef="0" cType="1" depth="6" nType="-99" pos="s" purity="0.0e+00" res="-0.0165541265" rms="0.0e+00" /><Node Cut="0.0e+00" IVar="-1" NCoef="0" cType="1" depth="6" nType="-99" pos="s" purity="0.0e+00" res="-0.120366447" rms="0.0e+00" /><Node Cut="0.0e+00" IVar="-1" NCoef="0" cType="1" depth="6" nType="-99" pos="s" purity="0.0e+00" res="0.0917188451" rms="0.0e+00" /><Node Cut="0.0e+00" IVar="-1" NCoef="0" cType="1" depth="6" nType="-99" pos="s" purity="0.0e+00" res="-0.0431363247" rms="0.0e+00" /><Node Cut="0.0e+00" IVar="-1" NCoef="0" cType="1" depth="6" nType="-99" pos="s" purity="0.0e+00" res="-0.139181361" rms="0.0e+00" /><Node Cut="0.0e+00" IVar="-1" NCoef="0" cType="1" depth="5" nType="-99" pos="s" purity="0.0e+00" res="0.129580811" rms="0.0e+00" /><Node Cut="0.0e+00" IVar="-1" NCoef="0" cType="1" depth="6" nType="-99" pos="s" purity="0.0e+00" res="0.00531574432" rms="0.0e+00" /><Node Cut="0.0e+00" IVar="-1" NCoef="0" cType="1" depth="6" nType="-99" pos="s" purity="0.0e+00" res="-0.134126052" rms="0.0e+00" /><Node Cut="0.0e+00" IVar="-1" NCoef="0" cType="1" depth="6" nType="-99" pos="s" purity="0.0e+00" res="-0.0954968259" rms="0.0e+00" /><Node Cut="0.0e+00" IVar="-1" NCoef="0" cType="1" depth="6" nType="-99" pos="s" purity="0.0e+00" res="0.0941508189" rms="0.0e+00" /><Node Cut="0.0e+00" IVar="-1" NCoef="0" cType="1" depth="6" nType="-99" pos="s" purity="0.0e+00" res="-0.074883692" rms="0.0e+00" /><Node Cut="0.0e+00" IVar="-1" NCoef="0" cType="1" depth="6" nType="-99" pos="s" purity="0.0e+00" res="0.0987710357" rms="0.0e+00" /><Node Cut="0.0e+00" IVar="-1" NCoef="0" cType="1" depth="6" nType="-99" pos="s" purity="0.0e+00" res="-0.12449304" rms="0.0e+00" /><Node Cut="0.0e+00" IVar="-1" NCoef="0" cType="1" depth="6" nType="-99" pos="s" purity="0.0e+00" res="0.120356835" rms="0.0e+00" /><Node Cut="0.0e+00" IVar="-1" NCoef="0" cType="1" depth="6" nType="-99" pos="s" purity="0.0e+00" res="0.0866770074" rms="0.0e+00" /><Node Cut="0.0e+00" IVar="-1" NCoef="0" cType="1" depth="6" nType="-99" pos="s" purity="0.0e+00" res="-0.133050576" rms="0.0e+00" /><Node Cut="0.0e+00" IVar="-1" NCoef="0" cType="1" depth="6" nType="-99" pos="s" purity="0.0e+00" res="-0.0664068684" rms="0.0e+00" /><Node Cut="0.0e+00" IVar="-1" NCoef="0" cType="1" depth="6" nType="-99" pos="s" purity="0.0e+00" res="0.110738419" rms="0.0e+00" /><Node Cut="0.0e+00" IVar="-1" NCoef="0" cType="1" depth="6" nType="-99" pos="s" purity="0.0e+00" res="-0.12369436" rms="0.0e+00" /><Node Cut="0.0e+00" IVar="-1" NCoef="0" cType="1" depth="6" nType="-99" pos="s" purity="0.0e+00" res="0.0802577361" rms="0.0e+00" /><Node Cut="0.0e+00" IVar="-1" NCoef="0" cType="1" depth="6" nType="-99" pos="s" purity="0.0e+00" res="-0.00843556877" rms="0.0e+00" /><Node Cut="0.0e+00" IVar="-1" NCoef="0" cType="1" depth="6" nType="-99" pos="s" purity="0.0e+00" res="0.136427373" rms="0.0e+00" /><Node Cut="0.0e+00" IVar="-1" NCoef="0" cType="1" depth="6" nType="-99" pos="s" purity="0.0e+00" res="0.127920419" rms="0.0e+00" /><Node Cut="0.0e+00" IVar="-1" NCoef="0" cType="1" depth="6" nType="-99" pos="s" purity="0.0e+00" res="-0.0362359844" rms="0.0e+00" /><Node Cut="0.0e+00" IVar="-1" NCoef="0" cType="1" depth="6" nType="-99" pos="s" purity="0.0e+00" res="0.147114277" rms="0.0e+00" /><Node Cut="0.0e+00" IVar="-1" NCoef="0" cType="1" depth="6" nType="-99" pos="s" purity="0.0e+00" res="0.0966833532" rms="0.0e+00" /></BinaryTree><BinaryTree boostWeight="1.0e+00" itree="5" type="DecisionTree"><Node Cut="0.0809595138" IVar="BToKEE_l1_pfmvaId" NCoef="0" cType="1" depth="0" nType="0" pos="s" purity="0.0e+00" res="0.0e+00" rms="0.0e+00"><Node Cut="0.466624856" IVar="BToKEE_l2_pfmvaId" NCoef="0" cType="1" depth="1" nType="0" pos="l" purity="0.0e+00" res="0.0e+00" rms="0.0e+00"><Node Cut="5.08398438" IVar="BToKEE_k_dxySig" NCoef="0" cType="1" depth="2" nType="0" pos="l" purity="0.0e+00" res="0.0e+00" rms="0.0e+00"><Node Cut="-7.74023438" IVar="BToKEE_k_dxySig" NCoef="0" cType="1" depth="3" nType="0" pos="l" purity="0.0e+00" res="0.0e+00" rms="0.0e+00"><Node Cut="0.998330832" IVar="BToKEE_cos2D" NCoef="0" cType="1" depth="4" nType="0" pos="l" purity="0.0e+00" res="0.0e+00" rms="0.0e+00"><Node Cut="0.538607717" IVar="BToKEE_svprob" NCoef="0" cType="1" depth="5" nType="0" pos="l" purity="0.0e+00" res="0.0e+00" rms="0.0e+00" /><Node Cut="-4.07002735" IVar="BToKEE_l1_pfmvaId" NCoef="0" cType="1" depth="5" nType="0" pos="r" purity="0.0e+00" res="0.0e+00" rms="0.0e+00" /></Node><Node Cut="0.797926188" IVar="BToKEE_k_ptN" NCoef="0" cType="1" depth="4" nType="0" pos="r" purity="0.0e+00" res="0.0e+00" rms="0.0e+00"><Node Cut="5.18701172" IVar="BToKEE_l2_iso04" NCoef="0" cType="1" depth="5" nType="0" pos="l" purity="0.0e+00" res="0.0e+00" rms="0.0e+00" /><Node Cut="14.2390137" IVar="BToKEE_iso04" NCoef="0" cType="1" depth="5" nType="0" pos="r" purity="0.0e+00" res="0.0e+00" rms="0.0e+00" /></Node></Node><Node Cut="0.994036555" IVar="BToKEE_cos2D" NCoef="0" cType="1" depth="3" nType="0" pos="r" purity="0.0e+00" res="0.0e+00" rms="0.0e+00"><Node Cut="-2.90320015" IVar="BToKEE_l1_pfmvaId" NCoef="0" cType="1" depth="4" nType="0" pos="r" purity="0.0e+00" res="0.0e+00" rms="0.0e+00"><Node Cut="0.999943972" IVar="BToKEE_cos2D" NCoef="0" cType="1" depth="5" nType="0" pos="l" purity="0.0e+00" res="0.0e+00" rms="0.0e+00" /><Node Cut="0.0779164881" IVar="BToKEE_svprob" NCoef="0" cType="1" depth="5" nType="0" pos="r" purity="0.0e+00" res="0.0e+00" rms="0.0e+00" /></Node></Node></Node><Node Cut="0.996736288" IVar="BToKEE_cos2D" NCoef="0" cType="1" depth="2" nType="0" pos="r" purity="0.0e+00" res="0.0e+00" rms="0.0e+00"><Node Cut="6.19580078" IVar="BToKEE_l1_iso04" NCoef="0" cType="1" depth="3" nType="0" pos="l" purity="0.0e+00" res="0.0e+00" rms="0.0e+00"><Node Cut="-1.65861821" IVar="BToKEE_l1_pfmvaId" NCoef="0" cType="1" depth="4" nType="0" pos="l" purity="0.0e+00" res="0.0e+00" rms="0.0e+00"><Node Cut="3.20166016" IVar="BToKEE_l2_iso04" NCoef="0" cType="1" depth="5" nType="0" pos="l" purity="0.0e+00" res="0.0e+00" rms="0.0e+00" /><Node Cut="0.293038487" IVar="BToKEE_minDR" NCoef="0" cType="1" depth="5" nType="0" pos="r" purity="0.0e+00" res="0.0e+00" rms="0.0e+00" /></Node><Node Cut="0.473341942" IVar="BToKEE_k_ptN" NCoef="0" cType="1" depth="4" nType="0" pos="r" purity="0.0e+00" res="0.0e+00" rms="0.0e+00"><Node Cut="-0.252542973" IVar="BToKEE_l1_pfmvaId" NCoef="0" cType="1" depth="5" nType="0" pos="l" purity="0.0e+00" res="0.0e+00" rms="0.0e+00" /><Node Cut="-2.10409212" IVar="BToKEE_l1_pfmvaId" NCoef="0" cType="1" depth="5" nType="0" pos="r" purity="0.0e+00" res="0.0e+00" rms="0.0e+00" /></Node></Node><Node Cut="-3.27277875" IVar="BToKEE_l1_pfmvaId" NCoef="0" cType="1" depth="3" nType="0" pos="r" purity="0.0e+00" res="0.0e+00" rms="0.0e+00"><Node Cut="13.0534191" IVar="BToKEE_l_xy_sig" NCoef="0" cType="1" depth="4" nType="0" pos="l" purity="0.0e+00" res="0.0e+00" rms="0.0e+00"><Node Cut="2.46386719" IVar="BToKEE_k_dxySig" NCoef="0" cType="1" depth="5" nType="0" pos="l" purity="0.0e+00" res="0.0e+00" rms="0.0e+00" /><Node Cut="2.50299501" IVar="BToKEE_ptImb" NCoef="0" cType="1" depth="5" nType="0" pos="r" purity="0.0e+00" res="0.0e+00" rms="0.0e+00" /></Node><Node Cut="1.86029553" IVar="BToKEE_l_xy_sig" NCoef="0" cType="1" depth="4" nType="0" pos="r" purity="0.0e+00" res="0.0e+00" rms="0.0e+00"><Node Cut="9.58740234" IVar="BToKEE_iso04" NCoef="0" cType="1" depth="5" nType="0" pos="l" purity="0.0e+00" res="0.0e+00" rms="0.0e+00" /><Node Cut="0.0674399137" IVar="BToKEE_svprob" NCoef="0" cType="1" depth="5" nType="0" pos="r" purity="0.0e+00" res="0.0e+00" rms="0.0e+00" /></Node></Node></Node></Node><Node Cut="0.995715976" IVar="BToKEE_cos2D" NCoef="0" cType="1" depth="1" nType="0" pos="r" purity="0.0e+00" res="0.0e+00" rms="0.0e+00"><Node Cut="-0.125384122" IVar="BToKEE_l2_pfmvaId" NCoef="0" cType="1" depth="2" nType="0" pos="l" purity="0.0e+00" res="0.0e+00" rms="0.0e+00"><Node Cut="0.762605131" IVar="BToKEE_k_ptN" NCoef="0" cType="1" depth="3" nType="0" pos="l" purity="0.0e+00" res="0.0e+00" rms="0.0e+00"><Node Cut="3.71484375" IVar="BToKEE_l1_iso04" NCoef="0" cType="1" depth="4" nType="0" pos="l" purity="0.0e+00" res="0.0e+00" rms="0.0e+00"><Node Cut="0.310411721" IVar="BToKEE_svprob" NCoef="0" cType="1" depth="5" nType="0" pos="l" purity="0.0e+00" res="0.0e+00" rms="0.0e+00" /><Node Cut="4.40039062" IVar="BToKEE_k_dxySig" NCoef="0" cType="1" depth="5" nType="0" pos="r" purity="0.0e+00" res="0.0e+00" rms="0.0e+00" /></Node><Node Cut="19.322998" IVar="BToKEE_iso04" NCoef="0" cType="1" depth="4" nType="0" pos="r" purity="0.0e+00" res="0.0e+00" rms="0.0e+00"><Node Cut="6.40125418" IVar="BToKEE_l_xy_sig" NCoef="0" cType="1" depth="5" nType="0" pos="l" purity="0.0e+00" res="0.0e+00" rms="0.0e+00" /><Node Cut="2.72613859" IVar="BToKEE_l1_ptN" NCoef="0" cType="1" depth="5" nType="0" pos="r" purity="0.0e+00" res="0.0e+00" rms="0.0e+00" /></Node></Node><Node Cut="0.319349349" IVar="BToKEE_k_ptN" NCoef="0" cType="1" depth="3" nType="0" pos="r" purity="0.0e+00" res="0.0e+00" rms="0.0e+00"><Node Cut="6.36791992" IVar="BToKEE_l2_iso04" NCoef="0" cType="1" depth="4" nType="0" pos="l" purity="0.0e+00" res="0.0e+00" rms="0.0e+00"><Node Cut="0.0564129427" IVar="BToKEE_svprob" NCoef="0" cType="1" depth="5" nType="0" pos="l" purity="0.0e+00" res="0.0e+00" rms="0.0e+00" /><Node Cut="1.16142941" IVar="BToKEE_maxDR" NCoef="0" cType="1" depth="5" nType="0" pos="r" purity="0.0e+00" res="0.0e+00" rms="0.0e+00" /></Node><Node Cut="24.7758789" IVar="BToKEE_l2_iso04" NCoef="0" cType="1" depth="4" nType="0" pos="r" purity="0.0e+00" res="0.0e+00" rms="0.0e+00"><Node Cut="10.852047" IVar="BToKEE_ptImb" NCoef="0" cType="1" depth="5" nType="0" pos="l" purity="0.0e+00" res="0.0e+00" rms="0.0e+00" /><Node Cut="2.0801785" IVar="BToKEE_l1_pfmvaId" NCoef="0" cType="1" depth="5" nType="0" pos="r" purity="0.0e+00" res="0.0e+00" rms="0.0e+00" /></Node></Node></Node><Node Cut="0.207581192" IVar="BToKEE_k_ptN" NCoef="0" cType="1" depth="2" nType="0" pos="r" purity="0.0e+00" res="0.0e+00" rms="0.0e+00"><Node Cut="12.2480469" IVar="BToKEE_l2_iso04" NCoef="0" cType="1" depth="3" nType="0" pos="l" purity="0.0e+00" res="0.0e+00" rms="0.0e+00"><Node Cut="3.43609476" IVar="BToKEE_l_xy_sig" NCoef="0" cType="1" depth="4" nType="0" pos="l" purity="0.0e+00" res="0.0e+00" rms="0.0e+00"><Node Cut="1.81734467" IVar="BToKEE_l2_pfmvaId" NCoef="0" cType="1" depth="5" nType="0" pos="l" purity="0.0e+00" res="0.0e+00" rms="0.0e+00" /><Node Cut="0.0347968861" IVar="BToKEE_svprob" NCoef="0" cType="1" depth="5" nType="0" pos="r" purity="0.0e+00" res="0.0e+00" rms="0.0e+00" /></Node><Node Cut="1.53059971" IVar="BToKEE_l2_pfmvaId" NCoef="0" cType="1" depth="4" nType="0" pos="r" purity="0.0e+00" res="0.0e+00" rms="0.0e+00"><Node Cut="12.0595264" IVar="BToKEE_l_xy_sig" NCoef="0" cType="1" depth="5" nType="0" pos="l" purity="0.0e+00" res="0.0e+00" rms="0.0e+00" /><Node Cut="6.96459961" IVar="BToKEE_iso04" NCoef="0" cType="1" depth="5" nType="0" pos="r" purity="0.0e+00" res="0.0e+00" rms="0.0e+00" /></Node></Node><Node Cut="2.529423" IVar="BToKEE_l_xy_sig" NCoef="0" cType="1" depth="3" nType="0" pos="r" purity="0.0e+00" res="0.0e+00" rms="0.0e+00"><Node Cut="0.522875011" IVar="BToKEE_k_ptN" NCoef="0" cType="1" depth="4" nType="0" pos="l" purity="0.0e+00" res="0.0e+00" rms="0.0e+00"><Node Cut="9.30786133" IVar="BToKEE_l2_iso04" NCoef="0" cType="1" depth="5" nType="0" pos="l" purity="0.0e+00" res="0.0e+00" rms="0.0e+00" /><Node Cut="38.1950684" IVar="BToKEE_l2_iso04" NCoef="0" cType="1" depth="5" nType="0" pos="r" purity="0.0e+00" res="0.0e+00" rms="0.0e+00" /></Node><Node Cut="-3.18978024" IVar="BToKEE_l2_pfmvaId" NCoef="0" cType="1" depth="4" nType="0" pos="r" purity="0.0e+00" res="0.0e+00" rms="0.0e+00"><Node Cut="0.83589375" IVar="BToKEE_maxDR" NCoef="0" cType="1" depth="5" nType="0" pos="l" purity="0.0e+00" res="0.0e+00" rms="0.0e+00" /><Node Cut="0.00628497498" IVar="BToKEE_svprob" NCoef="0" cType="1" depth="5" nType="0" pos="r" purity="0.0e+00" res="0.0e+00" rms="0.0e+00" /></Node></Node></Node></Node></Node><Node Cut="0.0e+00" IVar="-1" 